digraph Tree {
node [shape=box, fontname="helvetica"] ;
edge [fontname="helvetica"] ;
0 [label="HTTPS <= 0.5\ngini = 0.495\nsamples = 8290\nvalue = [3715, 4575]"] ;
1 [label="AnchorURL <= -0.5\ngini = 0.19\nsamples = 3574\nvalue = [3194, 380]"] ;
0 -> 1 [labeldistance=2.5, labelangle=45, headlabel="True"] ;
2 [label="gini = 0.0\nsamples = 2304\nvalue = [2304, 0]"] ;
1 -> 2 ;
3 [label="PrefixSuffix- <= 0.0\ngini = 0.419\nsamples = 1270\nvalue = [890, 380]"] ;
1 -> 3 ;
4 [label="LinksInScriptTags <= -0.5\ngini = 0.379\nsamples = 1193\nvalue = [890, 303]"] ;
3 -> 4 ;
5 [label="PageRank <= 0.0\ngini = 0.199\nsamples = 644\nvalue = [572, 72]"] ;
4 -> 5 ;
6 [label="GoogleIndex <= 0.0\ngini = 0.243\nsamples = 467\nvalue = [401, 66]"] ;
5 -> 6 ;
7 [label="HTTPSDomainURL <= 0.0\ngini = 0.091\nsamples = 125\nvalue = [119, 6]"] ;
6 -> 7 ;
8 [label="WebsiteTraffic <= -0.5\ngini = 0.26\nsamples = 13\nvalue = [11, 2]"] ;
7 -> 8 ;
9 [label="gini = 0.0\nsamples = 1\nvalue = [0, 1]"] ;
8 -> 9 ;
10 [label="LinksPointingToPage <= 0.5\ngini = 0.153\nsamples = 12\nvalue = [11, 1]"] ;
8 -> 10 ;
11 [label="gini = 0.0\nsamples = 9\nvalue = [9, 0]"] ;
10 -> 11 ;
12 [label="SubDomains <= -0.5\ngini = 0.444\nsamples = 3\nvalue = [2, 1]"] ;
10 -> 12 ;
13 [label="gini = 0.0\nsamples = 1\nvalue = [0, 1]"] ;
12 -> 13 ;
14 [label="gini = 0.0\nsamples = 2\nvalue = [2, 0]"] ;
12 -> 14 ;
15 [label="RequestURL <= 0.0\ngini = 0.069\nsamples = 112\nvalue = [108, 4]"] ;
7 -> 15 ;
16 [label="gini = 0.0\nsamples = 66\nvalue = [66, 0]"] ;
15 -> 16 ;
17 [label="Index <= 2904.0\ngini = 0.159\nsamples = 46\nvalue = [42, 4]"] ;
15 -> 17 ;
18 [label="Index <= 2350.0\ngini = 0.355\nsamples = 13\nvalue = [10, 3]"] ;
17 -> 18 ;
19 [label="AgeofDomain <= 0.0\ngini = 0.18\nsamples = 10\nvalue = [9, 1]"] ;
18 -> 19 ;
20 [label="gini = 0.0\nsamples = 8\nvalue = [8, 0]"] ;
19 -> 20 ;
21 [label="Index <= 1416.5\ngini = 0.5\nsamples = 2\nvalue = [1, 1]"] ;
19 -> 21 ;
22 [label="gini = 0.0\nsamples = 1\nvalue = [1, 0]"] ;
21 -> 22 ;
23 [label="gini = 0.0\nsamples = 1\nvalue = [0, 1]"] ;
21 -> 23 ;
24 [label="AgeofDomain <= 0.0\ngini = 0.444\nsamples = 3\nvalue = [1, 2]"] ;
18 -> 24 ;
25 [label="gini = 0.0\nsamples = 2\nvalue = [0, 2]"] ;
24 -> 25 ;
26 [label="gini = 0.0\nsamples = 1\nvalue = [1, 0]"] ;
24 -> 26 ;
27 [label="WebsiteTraffic <= -0.5\ngini = 0.059\nsamples = 33\nvalue = [32, 1]"] ;
17 -> 27 ;
28 [label="AnchorURL <= 0.5\ngini = 0.375\nsamples = 4\nvalue = [3, 1]"] ;
27 -> 28 ;
29 [label="LinksPointingToPage <= 0.5\ngini = 0.5\nsamples = 2\nvalue = [1, 1]"] ;
28 -> 29 ;
30 [label="gini = 0.0\nsamples = 1\nvalue = [0, 1]"] ;
29 -> 30 ;
31 [label="gini = 0.0\nsamples = 1\nvalue = [1, 0]"] ;
29 -> 31 ;
32 [label="gini = 0.0\nsamples = 2\nvalue = [2, 0]"] ;
28 -> 32 ;
33 [label="gini = 0.0\nsamples = 29\nvalue = [29, 0]"] ;
27 -> 33 ;
34 [label="UsingPopupWindow <= 0.0\ngini = 0.289\nsamples = 342\nvalue = [282, 60]"] ;
6 -> 34 ;
35 [label="ServerFormHandler <= -0.5\ngini = 0.492\nsamples = 16\nvalue = [9, 7]"] ;
34 -> 35 ;
36 [label="StatsReport <= 0.0\ngini = 0.298\nsamples = 11\nvalue = [9, 2]"] ;
35 -> 36 ;
37 [label="gini = 0.0\nsamples = 8\nvalue = [8, 0]"] ;
36 -> 37 ;
38 [label="UsingIP <= 0.0\ngini = 0.444\nsamples = 3\nvalue = [1, 2]"] ;
36 -> 38 ;
39 [label="gini = 0.0\nsamples = 1\nvalue = [1, 0]"] ;
38 -> 39 ;
40 [label="gini = 0.0\nsamples = 2\nvalue = [0, 2]"] ;
38 -> 40 ;
41 [label="gini = 0.0\nsamples = 5\nvalue = [0, 5]"] ;
35 -> 41 ;
42 [label="DomainRegLen <= 0.0\ngini = 0.272\nsamples = 326\nvalue = [273, 53]"] ;
34 -> 42 ;
43 [label="SubDomains <= 0.5\ngini = 0.172\nsamples = 116\nvalue = [105, 11]"] ;
42 -> 43 ;
44 [label="WebsiteTraffic <= 0.5\ngini = 0.111\nsamples = 85\nvalue = [80, 5]"] ;
43 -> 44 ;
45 [label="WebsiteForwarding <= 0.5\ngini = 0.198\nsamples = 36\nvalue = [32, 4]"] ;
44 -> 45 ;
46 [label="DNSRecording <= 0.0\ngini = 0.157\nsamples = 35\nvalue = [32, 3]"] ;
45 -> 46 ;
47 [label="gini = 0.0\nsamples = 16\nvalue = [16, 0]"] ;
46 -> 47 ;
48 [label="ServerFormHandler <= -0.5\ngini = 0.266\nsamples = 19\nvalue = [16, 3]"] ;
46 -> 48 ;
49 [label="UsingIP <= 0.0\ngini = 0.375\nsamples = 12\nvalue = [9, 3]"] ;
48 -> 49 ;
50 [label="gini = 0.0\nsamples = 4\nvalue = [4, 0]"] ;
49 -> 50 ;
51 [label="RequestURL <= 0.0\ngini = 0.469\nsamples = 8\nvalue = [5, 3]"] ;
49 -> 51 ;
52 [label="gini = 0.0\nsamples = 3\nvalue = [3, 0]"] ;
51 -> 52 ;
53 [label="StatsReport <= 0.0\ngini = 0.48\nsamples = 5\nvalue = [2, 3]"] ;
51 -> 53 ;
54 [label="gini = 0.0\nsamples = 2\nvalue = [2, 0]"] ;
53 -> 54 ;
55 [label="gini = 0.0\nsamples = 3\nvalue = [0, 3]"] ;
53 -> 55 ;
56 [label="gini = 0.0\nsamples = 7\nvalue = [7, 0]"] ;
48 -> 56 ;
57 [label="gini = 0.0\nsamples = 1\nvalue = [0, 1]"] ;
45 -> 57 ;
58 [label="Symbol@ <= 0.0\ngini = 0.04\nsamples = 49\nvalue = [48, 1]"] ;
44 -> 58 ;
59 [label="RequestURL <= 0.0\ngini = 0.32\nsamples = 5\nvalue = [4, 1]"] ;
58 -> 59 ;
60 [label="Index <= 9126.0\ngini = 0.5\nsamples = 2\nvalue = [1, 1]"] ;
59 -> 60 ;
61 [label="gini = 0.0\nsamples = 1\nvalue = [0, 1]"] ;
60 -> 61 ;
62 [label="gini = 0.0\nsamples = 1\nvalue = [1, 0]"] ;
60 -> 62 ;
63 [label="gini = 0.0\nsamples = 3\nvalue = [3, 0]"] ;
59 -> 63 ;
64 [label="gini = 0.0\nsamples = 44\nvalue = [44, 0]"] ;
58 -> 64 ;
65 [label="HTTPS <= -0.5\ngini = 0.312\nsamples = 31\nvalue = [25, 6]"] ;
43 -> 65 ;
66 [label="WebsiteTraffic <= -0.5\ngini = 0.159\nsamples = 23\nvalue = [21, 2]"] ;
65 -> 66 ;
67 [label="RequestURL <= 0.0\ngini = 0.5\nsamples = 2\nvalue = [1, 1]"] ;
66 -> 67 ;
68 [label="gini = 0.0\nsamples = 1\nvalue = [0, 1]"] ;
67 -> 68 ;
69 [label="gini = 0.0\nsamples = 1\nvalue = [1, 0]"] ;
67 -> 69 ;
70 [label="LinksPointingToPage <= 0.5\ngini = 0.091\nsamples = 21\nvalue = [20, 1]"] ;
66 -> 70 ;
71 [label="gini = 0.0\nsamples = 18\nvalue = [18, 0]"] ;
70 -> 71 ;
72 [label="AgeofDomain <= 0.0\ngini = 0.444\nsamples = 3\nvalue = [2, 1]"] ;
70 -> 72 ;
73 [label="gini = 0.0\nsamples = 1\nvalue = [0, 1]"] ;
72 -> 73 ;
74 [label="gini = 0.0\nsamples = 2\nvalue = [2, 0]"] ;
72 -> 74 ;
75 [label="UsingIP <= 0.0\ngini = 0.5\nsamples = 8\nvalue = [4, 4]"] ;
65 -> 75 ;
76 [label="gini = 0.0\nsamples = 3\nvalue = [3, 0]"] ;
75 -> 76 ;
77 [label="RequestURL <= 0.0\ngini = 0.32\nsamples = 5\nvalue = [1, 4]"] ;
75 -> 77 ;
78 [label="gini = 0.0\nsamples = 1\nvalue = [1, 0]"] ;
77 -> 78 ;
79 [label="gini = 0.0\nsamples = 4\nvalue = [0, 4]"] ;
77 -> 79 ;
80 [label="WebsiteTraffic <= 0.5\ngini = 0.32\nsamples = 210\nvalue = [168, 42]"] ;
42 -> 80 ;
81 [label="HTTPSDomainURL <= 0.0\ngini = 0.188\nsamples = 95\nvalue = [85, 10]"] ;
80 -> 81 ;
82 [label="LinksPointingToPage <= 0.5\ngini = 0.5\nsamples = 8\nvalue = [4, 4]"] ;
81 -> 82 ;
83 [label="gini = 0.0\nsamples = 2\nvalue = [2, 0]"] ;
82 -> 83 ;
84 [label="UsingIP <= 0.0\ngini = 0.444\nsamples = 6\nvalue = [2, 4]"] ;
82 -> 84 ;
85 [label="gini = 0.0\nsamples = 2\nvalue = [2, 0]"] ;
84 -> 85 ;
86 [label="gini = 0.0\nsamples = 4\nvalue = [0, 4]"] ;
84 -> 86 ;
87 [label="Index <= 8180.0\ngini = 0.128\nsamples = 87\nvalue = [81, 6]"] ;
81 -> 87 ;
88 [label="gini = 0.0\nsamples = 63\nvalue = [63, 0]"] ;
87 -> 88 ;
89 [label="SubDomains <= 0.5\ngini = 0.375\nsamples = 24\nvalue = [18, 6]"] ;
87 -> 89 ;
90 [label="Index <= 8371.0\ngini = 0.124\nsamples = 15\nvalue = [14, 1]"] ;
89 -> 90 ;
91 [label="gini = 0.0\nsamples = 1\nvalue = [0, 1]"] ;
90 -> 91 ;
92 [label="gini = 0.0\nsamples = 14\nvalue = [14, 0]"] ;
90 -> 92 ;
93 [label="Index <= 10415.5\ngini = 0.494\nsamples = 9\nvalue = [4, 5]"] ;
89 -> 93 ;
94 [label="Index <= 9171.0\ngini = 0.408\nsamples = 7\nvalue = [2, 5]"] ;
93 -> 94 ;
95 [label="Index <= 8451.5\ngini = 0.444\nsamples = 3\nvalue = [2, 1]"] ;
94 -> 95 ;
96 [label="gini = 0.0\nsamples = 1\nvalue = [0, 1]"] ;
95 -> 96 ;
97 [label="gini = 0.0\nsamples = 2\nvalue = [2, 0]"] ;
95 -> 97 ;
98 [label="gini = 0.0\nsamples = 4\nvalue = [0, 4]"] ;
94 -> 98 ;
99 [label="gini = 0.0\nsamples = 2\nvalue = [2, 0]"] ;
93 -> 99 ;
100 [label="Index <= 7708.0\ngini = 0.402\nsamples = 115\nvalue = [83, 32]"] ;
80 -> 100 ;
101 [label="AgeofDomain <= 0.0\ngini = 0.477\nsamples = 74\nvalue = [45, 29]"] ;
100 -> 101 ;
102 [label="Index <= 4956.0\ngini = 0.411\nsamples = 52\nvalue = [37, 15]"] ;
101 -> 102 ;
103 [label="SubDomains <= -0.5\ngini = 0.301\nsamples = 38\nvalue = [31, 7]"] ;
102 -> 103 ;
104 [label="gini = 0.0\nsamples = 17\nvalue = [17, 0]"] ;
103 -> 104 ;
105 [label="SubDomains <= 0.5\ngini = 0.444\nsamples = 21\nvalue = [14, 7]"] ;
103 -> 105 ;
106 [label="Index <= 392.5\ngini = 0.42\nsamples = 10\nvalue = [3, 7]"] ;
105 -> 106 ;
107 [label="gini = 0.0\nsamples = 1\nvalue = [1, 0]"] ;
106 -> 107 ;
108 [label="Index <= 3469.5\ngini = 0.346\nsamples = 9\nvalue = [2, 7]"] ;
106 -> 108 ;
109 [label="Index <= 1599.0\ngini = 0.219\nsamples = 8\nvalue = [1, 7]"] ;
108 -> 109 ;
110 [label="Index <= 1094.0\ngini = 0.444\nsamples = 3\nvalue = [1, 2]"] ;
109 -> 110 ;
111 [label="gini = 0.0\nsamples = 2\nvalue = [0, 2]"] ;
110 -> 111 ;
112 [label="gini = 0.0\nsamples = 1\nvalue = [1, 0]"] ;
110 -> 112 ;
113 [label="gini = 0.0\nsamples = 5\nvalue = [0, 5]"] ;
109 -> 113 ;
114 [label="gini = 0.0\nsamples = 1\nvalue = [1, 0]"] ;
108 -> 114 ;
115 [label="gini = 0.0\nsamples = 11\nvalue = [11, 0]"] ;
105 -> 115 ;
116 [label="Index <= 5434.5\ngini = 0.49\nsamples = 14\nvalue = [6, 8]"] ;
102 -> 116 ;
117 [label="gini = 0.0\nsamples = 4\nvalue = [0, 4]"] ;
116 -> 117 ;
118 [label="Index <= 6307.0\ngini = 0.48\nsamples = 10\nvalue = [6, 4]"] ;
116 -> 118 ;
119 [label="gini = 0.0\nsamples = 3\nvalue = [3, 0]"] ;
118 -> 119 ;
120 [label="Index <= 6971.5\ngini = 0.49\nsamples = 7\nvalue = [3, 4]"] ;
118 -> 120 ;
121 [label="gini = 0.0\nsamples = 3\nvalue = [0, 3]"] ;
120 -> 121 ;
122 [label="LinksPointingToPage <= 0.5\ngini = 0.375\nsamples = 4\nvalue = [3, 1]"] ;
120 -> 122 ;
123 [label="gini = 0.0\nsamples = 1\nvalue = [0, 1]"] ;
122 -> 123 ;
124 [label="gini = 0.0\nsamples = 3\nvalue = [3, 0]"] ;
122 -> 124 ;
125 [label="RequestURL <= 0.0\ngini = 0.463\nsamples = 22\nvalue = [8, 14]"] ;
101 -> 125 ;
126 [label="Index <= 548.5\ngini = 0.42\nsamples = 20\nvalue = [6, 14]"] ;
125 -> 126 ;
127 [label="Index <= 339.0\ngini = 0.375\nsamples = 4\nvalue = [3, 1]"] ;
126 -> 127 ;
128 [label="gini = 0.0\nsamples = 1\nvalue = [0, 1]"] ;
127 -> 128 ;
129 [label="gini = 0.0\nsamples = 3\nvalue = [3, 0]"] ;
127 -> 129 ;
130 [label="Index <= 3489.5\ngini = 0.305\nsamples = 16\nvalue = [3, 13]"] ;
126 -> 130 ;
131 [label="Index <= 2721.0\ngini = 0.397\nsamples = 11\nvalue = [3, 8]"] ;
130 -> 131 ;
132 [label="SubDomains <= 0.5\ngini = 0.219\nsamples = 8\nvalue = [1, 7]"] ;
131 -> 132 ;
133 [label="gini = 0.0\nsamples = 5\nvalue = [0, 5]"] ;
132 -> 133 ;
134 [label="Index <= 1395.0\ngini = 0.444\nsamples = 3\nvalue = [1, 2]"] ;
132 -> 134 ;
135 [label="gini = 0.0\nsamples = 1\nvalue = [0, 1]"] ;
134 -> 135 ;
136 [label="Index <= 2009.0\ngini = 0.5\nsamples = 2\nvalue = [1, 1]"] ;
134 -> 136 ;
137 [label="gini = 0.0\nsamples = 1\nvalue = [1, 0]"] ;
136 -> 137 ;
138 [label="gini = 0.0\nsamples = 1\nvalue = [0, 1]"] ;
136 -> 138 ;
139 [label="LinksPointingToPage <= 0.5\ngini = 0.444\nsamples = 3\nvalue = [2, 1]"] ;
131 -> 139 ;
140 [label="gini = 0.0\nsamples = 1\nvalue = [0, 1]"] ;
139 -> 140 ;
141 [label="gini = 0.0\nsamples = 2\nvalue = [2, 0]"] ;
139 -> 141 ;
142 [label="gini = 0.0\nsamples = 5\nvalue = [0, 5]"] ;
130 -> 142 ;
143 [label="gini = 0.0\nsamples = 2\nvalue = [2, 0]"] ;
125 -> 143 ;
144 [label="Index <= 10488.5\ngini = 0.136\nsamples = 41\nvalue = [38, 3]"] ;
100 -> 144 ;
145 [label="gini = 0.0\nsamples = 32\nvalue = [32, 0]"] ;
144 -> 145 ;
146 [label="Index <= 10652.5\ngini = 0.444\nsamples = 9\nvalue = [6, 3]"] ;
144 -> 146 ;
147 [label="gini = 0.0\nsamples = 2\nvalue = [0, 2]"] ;
146 -> 147 ;
148 [label="SubDomains <= 0.5\ngini = 0.245\nsamples = 7\nvalue = [6, 1]"] ;
146 -> 148 ;
149 [label="gini = 0.0\nsamples = 3\nvalue = [3, 0]"] ;
148 -> 149 ;
150 [label="Index <= 10894.0\ngini = 0.375\nsamples = 4\nvalue = [3, 1]"] ;
148 -> 150 ;
151 [label="gini = 0.0\nsamples = 1\nvalue = [0, 1]"] ;
150 -> 151 ;
152 [label="gini = 0.0\nsamples = 3\nvalue = [3, 0]"] ;
150 -> 152 ;
153 [label="Index <= 10323.0\ngini = 0.065\nsamples = 177\nvalue = [171, 6]"] ;
5 -> 153 ;
154 [label="WebsiteTraffic <= 0.5\ngini = 0.056\nsamples = 175\nvalue = [170, 5]"] ;
153 -> 154 ;
155 [label="gini = 0.0\nsamples = 117\nvalue = [117, 0]"] ;
154 -> 155 ;
156 [label="Index <= 7575.5\ngini = 0.158\nsamples = 58\nvalue = [53, 5]"] ;
154 -> 156 ;
157 [label="SubDomains <= 0.5\ngini = 0.085\nsamples = 45\nvalue = [43, 2]"] ;
156 -> 157 ;
158 [label="LinksPointingToPage <= 0.5\ngini = 0.05\nsamples = 39\nvalue = [38, 1]"] ;
157 -> 158 ;
159 [label="gini = 0.0\nsamples = 26\nvalue = [26, 0]"] ;
158 -> 159 ;
160 [label="Index <= 6667.5\ngini = 0.142\nsamples = 13\nvalue = [12, 1]"] ;
158 -> 160 ;
161 [label="gini = 0.0\nsamples = 10\nvalue = [10, 0]"] ;
160 -> 161 ;
162 [label="Index <= 6984.5\ngini = 0.444\nsamples = 3\nvalue = [2, 1]"] ;
160 -> 162 ;
163 [label="gini = 0.0\nsamples = 1\nvalue = [0, 1]"] ;
162 -> 163 ;
164 [label="gini = 0.0\nsamples = 2\nvalue = [2, 0]"] ;
162 -> 164 ;
165 [label="Symbol@ <= 0.0\ngini = 0.278\nsamples = 6\nvalue = [5, 1]"] ;
157 -> 165 ;
166 [label="gini = 0.0\nsamples = 4\nvalue = [4, 0]"] ;
165 -> 166 ;
167 [label="Index <= 5870.0\ngini = 0.5\nsamples = 2\nvalue = [1, 1]"] ;
165 -> 167 ;
168 [label="gini = 0.0\nsamples = 1\nvalue = [1, 0]"] ;
167 -> 168 ;
169 [label="gini = 0.0\nsamples = 1\nvalue = [0, 1]"] ;
167 -> 169 ;
170 [label="SubDomains <= 0.5\ngini = 0.355\nsamples = 13\nvalue = [10, 3]"] ;
156 -> 170 ;
171 [label="Index <= 7599.0\ngini = 0.278\nsamples = 12\nvalue = [10, 2]"] ;
170 -> 171 ;
172 [label="gini = 0.0\nsamples = 1\nvalue = [0, 1]"] ;
171 -> 172 ;
173 [label="Index <= 7967.5\ngini = 0.165\nsamples = 11\nvalue = [10, 1]"] ;
171 -> 173 ;
174 [label="Index <= 7811.0\ngini = 0.444\nsamples = 3\nvalue = [2, 1]"] ;
173 -> 174 ;
175 [label="gini = 0.0\nsamples = 2\nvalue = [2, 0]"] ;
174 -> 175 ;
176 [label="gini = 0.0\nsamples = 1\nvalue = [0, 1]"] ;
174 -> 176 ;
177 [label="gini = 0.0\nsamples = 8\nvalue = [8, 0]"] ;
173 -> 177 ;
178 [label="gini = 0.0\nsamples = 1\nvalue = [0, 1]"] ;
170 -> 178 ;
179 [label="SubDomains <= 0.5\ngini = 0.5\nsamples = 2\nvalue = [1, 1]"] ;
153 -> 179 ;
180 [label="gini = 0.0\nsamples = 1\nvalue = [1, 0]"] ;
179 -> 180 ;
181 [label="gini = 0.0\nsamples = 1\nvalue = [0, 1]"] ;
179 -> 181 ;
182 [label="DomainRegLen <= 0.0\ngini = 0.487\nsamples = 549\nvalue = [318, 231]"] ;
4 -> 182 ;
183 [label="SubDomains <= -0.5\ngini = 0.497\nsamples = 351\nvalue = [163, 188]"] ;
182 -> 183 ;
184 [label="LinksInScriptTags <= 0.5\ngini = 0.422\nsamples = 96\nvalue = [67, 29]"] ;
183 -> 184 ;
185 [label="Index <= 5227.5\ngini = 0.298\nsamples = 77\nvalue = [63, 14]"] ;
184 -> 185 ;
186 [label="LinksPointingToPage <= -0.5\ngini = 0.098\nsamples = 58\nvalue = [55, 3]"] ;
185 -> 186 ;
187 [label="gini = 0.0\nsamples = 3\nvalue = [0, 3]"] ;
186 -> 187 ;
188 [label="gini = 0.0\nsamples = 55\nvalue = [55, 0]"] ;
186 -> 188 ;
189 [label="HTTPS <= -0.5\ngini = 0.488\nsamples = 19\nvalue = [8, 11]"] ;
185 -> 189 ;
190 [label="WebsiteForwarding <= 0.5\ngini = 0.391\nsamples = 15\nvalue = [4, 11]"] ;
189 -> 190 ;
191 [label="RequestURL <= 0.0\ngini = 0.153\nsamples = 12\nvalue = [1, 11]"] ;
190 -> 191 ;
192 [label="AnchorURL <= 0.5\ngini = 0.375\nsamples = 4\nvalue = [1, 3]"] ;
191 -> 192 ;
193 [label="Index <= 7621.0\ngini = 0.5\nsamples = 2\nvalue = [1, 1]"] ;
192 -> 193 ;
194 [label="gini = 0.0\nsamples = 1\nvalue = [1, 0]"] ;
193 -> 194 ;
195 [label="gini = 0.0\nsamples = 1\nvalue = [0, 1]"] ;
193 -> 195 ;
196 [label="gini = 0.0\nsamples = 2\nvalue = [0, 2]"] ;
192 -> 196 ;
197 [label="gini = 0.0\nsamples = 8\nvalue = [0, 8]"] ;
191 -> 197 ;
198 [label="gini = 0.0\nsamples = 3\nvalue = [3, 0]"] ;
190 -> 198 ;
199 [label="gini = 0.0\nsamples = 4\nvalue = [4, 0]"] ;
189 -> 199 ;
200 [label="ShortURL <= 0.0\ngini = 0.332\nsamples = 19\nvalue = [4, 15]"] ;
184 -> 200 ;
201 [label="gini = 0.0\nsamples = 1\nvalue = [1, 0]"] ;
200 -> 201 ;
202 [label="LongURL <= 0.0\ngini = 0.278\nsamples = 18\nvalue = [3, 15]"] ;
200 -> 202 ;
203 [label="gini = 0.0\nsamples = 11\nvalue = [0, 11]"] ;
202 -> 203 ;
204 [label="Index <= 7798.5\ngini = 0.49\nsamples = 7\nvalue = [3, 4]"] ;
202 -> 204 ;
205 [label="Index <= 2732.5\ngini = 0.444\nsamples = 6\nvalue = [2, 4]"] ;
204 -> 205 ;
206 [label="Index <= 1274.0\ngini = 0.5\nsamples = 4\nvalue = [2, 2]"] ;
205 -> 206 ;
207 [label="gini = 0.0\nsamples = 1\nvalue = [0, 1]"] ;
206 -> 207 ;
208 [label="Index <= 1888.0\ngini = 0.444\nsamples = 3\nvalue = [2, 1]"] ;
206 -> 208 ;
209 [label="gini = 0.0\nsamples = 1\nvalue = [1, 0]"] ;
208 -> 209 ;
210 [label="Index <= 2335.5\ngini = 0.5\nsamples = 2\nvalue = [1, 1]"] ;
208 -> 210 ;
211 [label="gini = 0.0\nsamples = 1\nvalue = [0, 1]"] ;
210 -> 211 ;
212 [label="gini = 0.0\nsamples = 1\nvalue = [1, 0]"] ;
210 -> 212 ;
213 [label="gini = 0.0\nsamples = 2\nvalue = [0, 2]"] ;
205 -> 213 ;
214 [label="gini = 0.0\nsamples = 1\nvalue = [1, 0]"] ;
204 -> 214 ;
215 [label="AnchorURL <= 0.5\ngini = 0.469\nsamples = 255\nvalue = [96, 159]"] ;
183 -> 215 ;
216 [label="LongURL <= 0.0\ngini = 0.498\nsamples = 179\nvalue = [84, 95]"] ;
215 -> 216 ;
217 [label="LinksPointingToPage <= 0.5\ngini = 0.489\nsamples = 134\nvalue = [77, 57]"] ;
216 -> 217 ;
218 [label="Index <= 5645.5\ngini = 0.369\nsamples = 86\nvalue = [65, 21]"] ;
217 -> 218 ;
219 [label="DNSRecording <= 0.0\ngini = 0.493\nsamples = 34\nvalue = [19, 15]"] ;
218 -> 219 ;
220 [label="gini = 0.0\nsamples = 10\nvalue = [10, 0]"] ;
219 -> 220 ;
221 [label="HTTPSDomainURL <= 0.0\ngini = 0.469\nsamples = 24\nvalue = [9, 15]"] ;
219 -> 221 ;
222 [label="gini = 0.0\nsamples = 3\nvalue = [3, 0]"] ;
221 -> 222 ;
223 [label="WebsiteForwarding <= 0.5\ngini = 0.408\nsamples = 21\nvalue = [6, 15]"] ;
221 -> 223 ;
224 [label="HTTPS <= -0.5\ngini = 0.332\nsamples = 19\nvalue = [4, 15]"] ;
223 -> 224 ;
225 [label="StatsReport <= 0.0\ngini = 0.208\nsamples = 17\nvalue = [2, 15]"] ;
224 -> 225 ;
226 [label="gini = 0.0\nsamples = 1\nvalue = [1, 0]"] ;
225 -> 226 ;
227 [label="Index <= 395.0\ngini = 0.117\nsamples = 16\nvalue = [1, 15]"] ;
225 -> 227 ;
228 [label="Index <= 376.5\ngini = 0.444\nsamples = 3\nvalue = [1, 2]"] ;
227 -> 228 ;
229 [label="gini = 0.0\nsamples = 2\nvalue = [0, 2]"] ;
228 -> 229 ;
230 [label="gini = 0.0\nsamples = 1\nvalue = [1, 0]"] ;
228 -> 230 ;
231 [label="gini = 0.0\nsamples = 13\nvalue = [0, 13]"] ;
227 -> 231 ;
232 [label="gini = 0.0\nsamples = 2\nvalue = [2, 0]"] ;
224 -> 232 ;
233 [label="gini = 0.0\nsamples = 2\nvalue = [2, 0]"] ;
223 -> 233 ;
234 [label="SubDomains <= 0.5\ngini = 0.204\nsamples = 52\nvalue = [46, 6]"] ;
218 -> 234 ;
235 [label="LinksInScriptTags <= 0.5\ngini = 0.102\nsamples = 37\nvalue = [35, 2]"] ;
234 -> 235 ;
236 [label="Symbol@ <= 0.0\ngini = 0.061\nsamples = 32\nvalue = [31, 1]"] ;
235 -> 236 ;
237 [label="UsingIP <= 0.0\ngini = 0.219\nsamples = 8\nvalue = [7, 1]"] ;
236 -> 237 ;
238 [label="gini = 0.0\nsamples = 5\nvalue = [5, 0]"] ;
237 -> 238 ;
239 [label="WebsiteTraffic <= 0.5\ngini = 0.444\nsamples = 3\nvalue = [2, 1]"] ;
237 -> 239 ;
240 [label="gini = 0.0\nsamples = 1\nvalue = [1, 0]"] ;
239 -> 240 ;
241 [label="Index <= 8696.5\ngini = 0.5\nsamples = 2\nvalue = [1, 1]"] ;
239 -> 241 ;
242 [label="gini = 0.0\nsamples = 1\nvalue = [0, 1]"] ;
241 -> 242 ;
243 [label="gini = 0.0\nsamples = 1\nvalue = [1, 0]"] ;
241 -> 243 ;
244 [label="gini = 0.0\nsamples = 24\nvalue = [24, 0]"] ;
236 -> 244 ;
245 [label="Index <= 8403.0\ngini = 0.32\nsamples = 5\nvalue = [4, 1]"] ;
235 -> 245 ;
246 [label="gini = 0.0\nsamples = 1\nvalue = [0, 1]"] ;
245 -> 246 ;
247 [label="gini = 0.0\nsamples = 4\nvalue = [4, 0]"] ;
245 -> 247 ;
248 [label="WebsiteTraffic <= 0.5\ngini = 0.391\nsamples = 15\nvalue = [11, 4]"] ;
234 -> 248 ;
249 [label="Index <= 6481.0\ngini = 0.494\nsamples = 9\nvalue = [5, 4]"] ;
248 -> 249 ;
250 [label="gini = 0.0\nsamples = 3\nvalue = [3, 0]"] ;
249 -> 250 ;
251 [label="UsingIP <= 0.0\ngini = 0.444\nsamples = 6\nvalue = [2, 4]"] ;
249 -> 251 ;
252 [label="gini = 0.0\nsamples = 1\nvalue = [1, 0]"] ;
251 -> 252 ;
253 [label="HTTPSDomainURL <= 0.0\ngini = 0.32\nsamples = 5\nvalue = [1, 4]"] ;
251 -> 253 ;
254 [label="gini = 0.0\nsamples = 1\nvalue = [1, 0]"] ;
253 -> 254 ;
255 [label="gini = 0.0\nsamples = 4\nvalue = [0, 4]"] ;
253 -> 255 ;
256 [label="gini = 0.0\nsamples = 6\nvalue = [6, 0]"] ;
248 -> 256 ;
257 [label="SubDomains <= 0.5\ngini = 0.375\nsamples = 48\nvalue = [12, 36]"] ;
217 -> 257 ;
258 [label="ServerFormHandler <= 0.5\ngini = 0.497\nsamples = 24\nvalue = [11, 13]"] ;
257 -> 258 ;
259 [label="WebsiteTraffic <= 0.5\ngini = 0.432\nsamples = 19\nvalue = [6, 13]"] ;
258 -> 259 ;
260 [label="UsingPopupWindow <= 0.0\ngini = 0.444\nsamples = 6\nvalue = [4, 2]"] ;
259 -> 260 ;
261 [label="gini = 0.0\nsamples = 2\nvalue = [0, 2]"] ;
260 -> 261 ;
262 [label="gini = 0.0\nsamples = 4\nvalue = [4, 0]"] ;
260 -> 262 ;
263 [label="Index <= 9165.5\ngini = 0.26\nsamples = 13\nvalue = [2, 11]"] ;
259 -> 263 ;
264 [label="gini = 0.0\nsamples = 10\nvalue = [0, 10]"] ;
263 -> 264 ;
265 [label="UsingIP <= 0.0\ngini = 0.444\nsamples = 3\nvalue = [2, 1]"] ;
263 -> 265 ;
266 [label="gini = 0.0\nsamples = 2\nvalue = [2, 0]"] ;
265 -> 266 ;
267 [label="gini = 0.0\nsamples = 1\nvalue = [0, 1]"] ;
265 -> 267 ;
268 [label="gini = 0.0\nsamples = 5\nvalue = [5, 0]"] ;
258 -> 268 ;
269 [label="HTTPS <= -0.5\ngini = 0.08\nsamples = 24\nvalue = [1, 23]"] ;
257 -> 269 ;
270 [label="gini = 0.0\nsamples = 23\nvalue = [0, 23]"] ;
269 -> 270 ;
271 [label="gini = 0.0\nsamples = 1\nvalue = [1, 0]"] ;
269 -> 271 ;
272 [label="ShortURL <= 0.0\ngini = 0.263\nsamples = 45\nvalue = [7, 38]"] ;
216 -> 272 ;
273 [label="gini = 0.0\nsamples = 2\nvalue = [2, 0]"] ;
272 -> 273 ;
274 [label="ServerFormHandler <= -0.5\ngini = 0.206\nsamples = 43\nvalue = [5, 38]"] ;
272 -> 274 ;
275 [label="gini = 0.0\nsamples = 18\nvalue = [0, 18]"] ;
274 -> 275 ;
276 [label="GoogleIndex <= 0.0\ngini = 0.32\nsamples = 25\nvalue = [5, 20]"] ;
274 -> 276 ;
277 [label="gini = 0.0\nsamples = 1\nvalue = [1, 0]"] ;
276 -> 277 ;
278 [label="WebsiteTraffic <= 0.5\ngini = 0.278\nsamples = 24\nvalue = [4, 20]"] ;
276 -> 278 ;
279 [label="Index <= 7915.0\ngini = 0.49\nsamples = 7\nvalue = [3, 4]"] ;
278 -> 279 ;
280 [label="gini = 0.0\nsamples = 3\nvalue = [3, 0]"] ;
279 -> 280 ;
281 [label="gini = 0.0\nsamples = 4\nvalue = [0, 4]"] ;
279 -> 281 ;
282 [label="Index <= 8968.0\ngini = 0.111\nsamples = 17\nvalue = [1, 16]"] ;
278 -> 282 ;
283 [label="gini = 0.0\nsamples = 16\nvalue = [0, 16]"] ;
282 -> 283 ;
284 [label="gini = 0.0\nsamples = 1\nvalue = [1, 0]"] ;
282 -> 284 ;
285 [label="HTTPS <= -0.5\ngini = 0.266\nsamples = 76\nvalue = [12, 64]"] ;
215 -> 285 ;
286 [label="StatusBarCust <= 0.0\ngini = 0.111\nsamples = 68\nvalue = [4, 64]"] ;
285 -> 286 ;
287 [label="gini = 0.0\nsamples = 1\nvalue = [1, 0]"] ;
286 -> 287 ;
288 [label="GoogleIndex <= 0.0\ngini = 0.086\nsamples = 67\nvalue = [3, 64]"] ;
286 -> 288 ;
289 [label="DNSRecording <= 0.0\ngini = 0.444\nsamples = 3\nvalue = [1, 2]"] ;
288 -> 289 ;
290 [label="gini = 0.0\nsamples = 2\nvalue = [0, 2]"] ;
289 -> 290 ;
291 [label="gini = 0.0\nsamples = 1\nvalue = [1, 0]"] ;
289 -> 291 ;
292 [label="PageRank <= 0.0\ngini = 0.061\nsamples = 64\nvalue = [2, 62]"] ;
288 -> 292 ;
293 [label="gini = 0.0\nsamples = 46\nvalue = [0, 46]"] ;
292 -> 293 ;
294 [label="WebsiteForwarding <= 0.5\ngini = 0.198\nsamples = 18\nvalue = [2, 16]"] ;
292 -> 294 ;
295 [label="RequestURL <= 0.0\ngini = 0.111\nsamples = 17\nvalue = [1, 16]"] ;
294 -> 295 ;
296 [label="gini = 0.0\nsamples = 1\nvalue = [1, 0]"] ;
295 -> 296 ;
297 [label="gini = 0.0\nsamples = 16\nvalue = [0, 16]"] ;
295 -> 297 ;
298 [label="gini = 0.0\nsamples = 1\nvalue = [1, 0]"] ;
294 -> 298 ;
299 [label="gini = 0.0\nsamples = 8\nvalue = [8, 0]"] ;
285 -> 299 ;
300 [label="GoogleIndex <= 0.0\ngini = 0.34\nsamples = 198\nvalue = [155, 43]"] ;
182 -> 300 ;
301 [label="UsingIP <= 0.0\ngini = 0.078\nsamples = 49\nvalue = [47, 2]"] ;
300 -> 301 ;
302 [label="RequestURL <= 0.0\ngini = 0.375\nsamples = 4\nvalue = [3, 1]"] ;
301 -> 302 ;
303 [label="gini = 0.0\nsamples = 3\nvalue = [3, 0]"] ;
302 -> 303 ;
304 [label="gini = 0.0\nsamples = 1\nvalue = [0, 1]"] ;
302 -> 304 ;
305 [label="RequestURL <= 0.0\ngini = 0.043\nsamples = 45\nvalue = [44, 1]"] ;
301 -> 305 ;
306 [label="gini = 0.0\nsamples = 31\nvalue = [31, 0]"] ;
305 -> 306 ;
307 [label="DNSRecording <= 0.0\ngini = 0.133\nsamples = 14\nvalue = [13, 1]"] ;
305 -> 307 ;
308 [label="Index <= 3822.0\ngini = 0.278\nsamples = 6\nvalue = [5, 1]"] ;
307 -> 308 ;
309 [label="gini = 0.0\nsamples = 4\nvalue = [4, 0]"] ;
308 -> 309 ;
310 [label="ServerFormHandler <= 0.0\ngini = 0.5\nsamples = 2\nvalue = [1, 1]"] ;
308 -> 310 ;
311 [label="gini = 0.0\nsamples = 1\nvalue = [0, 1]"] ;
310 -> 311 ;
312 [label="gini = 0.0\nsamples = 1\nvalue = [1, 0]"] ;
310 -> 312 ;
313 [label="gini = 0.0\nsamples = 8\nvalue = [8, 0]"] ;
307 -> 313 ;
314 [label="ServerFormHandler <= 0.5\ngini = 0.399\nsamples = 149\nvalue = [108, 41]"] ;
300 -> 314 ;
315 [label="Index <= 10963.0\ngini = 0.362\nsamples = 135\nvalue = [103, 32]"] ;
314 -> 315 ;
316 [label="WebsiteForwarding <= 0.5\ngini = 0.349\nsamples = 133\nvalue = [103, 30]"] ;
315 -> 316 ;
317 [label="ServerFormHandler <= -0.5\ngini = 0.377\nsamples = 119\nvalue = [89, 30]"] ;
316 -> 317 ;
318 [label="HTTPS <= -0.5\ngini = 0.354\nsamples = 113\nvalue = [87, 26]"] ;
317 -> 318 ;
319 [label="UsingIP <= 0.0\ngini = 0.37\nsamples = 106\nvalue = [80, 26]"] ;
318 -> 319 ;
320 [label="SubDomains <= -0.5\ngini = 0.251\nsamples = 34\nvalue = [29, 5]"] ;
319 -> 320 ;
321 [label="Index <= 6440.5\ngini = 0.444\nsamples = 3\nvalue = [1, 2]"] ;
320 -> 321 ;
322 [label="gini = 0.0\nsamples = 1\nvalue = [1, 0]"] ;
321 -> 322 ;
323 [label="gini = 0.0\nsamples = 2\nvalue = [0, 2]"] ;
321 -> 323 ;
324 [label="Index <= 5237.0\ngini = 0.175\nsamples = 31\nvalue = [28, 3]"] ;
320 -> 324 ;
325 [label="gini = 0.0\nsamples = 1\nvalue = [0, 1]"] ;
324 -> 325 ;
326 [label="Index <= 10024.0\ngini = 0.124\nsamples = 30\nvalue = [28, 2]"] ;
324 -> 326 ;
327 [label="gini = 0.0\nsamples = 25\nvalue = [25, 0]"] ;
326 -> 327 ;
328 [label="Index <= 10472.0\ngini = 0.48\nsamples = 5\nvalue = [3, 2]"] ;
326 -> 328 ;
329 [label="Index <= 10039.5\ngini = 0.444\nsamples = 3\nvalue = [1, 2]"] ;
328 -> 329 ;
330 [label="gini = 0.0\nsamples = 1\nvalue = [0, 1]"] ;
329 -> 330 ;
331 [label="Index <= 10084.0\ngini = 0.5\nsamples = 2\nvalue = [1, 1]"] ;
329 -> 331 ;
332 [label="gini = 0.0\nsamples = 1\nvalue = [1, 0]"] ;
331 -> 332 ;
333 [label="gini = 0.0\nsamples = 1\nvalue = [0, 1]"] ;
331 -> 333 ;
334 [label="gini = 0.0\nsamples = 2\nvalue = [2, 0]"] ;
328 -> 334 ;
335 [label="DNSRecording <= 0.0\ngini = 0.413\nsamples = 72\nvalue = [51, 21]"] ;
319 -> 335 ;
336 [label="PageRank <= 0.0\ngini = 0.308\nsamples = 42\nvalue = [34, 8]"] ;
335 -> 336 ;
337 [label="Index <= 2686.5\ngini = 0.17\nsamples = 32\nvalue = [29, 3]"] ;
336 -> 337 ;
338 [label="Index <= 2419.5\ngini = 0.255\nsamples = 20\nvalue = [17, 3]"] ;
337 -> 338 ;
339 [label="Index <= 1480.0\ngini = 0.188\nsamples = 19\nvalue = [17, 2]"] ;
338 -> 339 ;
340 [label="Index <= 1379.5\ngini = 0.32\nsamples = 10\nvalue = [8, 2]"] ;
339 -> 340 ;
341 [label="Index <= 281.0\ngini = 0.198\nsamples = 9\nvalue = [8, 1]"] ;
340 -> 341 ;
342 [label="Index <= 180.5\ngini = 0.375\nsamples = 4\nvalue = [3, 1]"] ;
341 -> 342 ;
343 [label="gini = 0.0\nsamples = 3\nvalue = [3, 0]"] ;
342 -> 343 ;
344 [label="gini = 0.0\nsamples = 1\nvalue = [0, 1]"] ;
342 -> 344 ;
345 [label="gini = 0.0\nsamples = 5\nvalue = [5, 0]"] ;
341 -> 345 ;
346 [label="gini = 0.0\nsamples = 1\nvalue = [0, 1]"] ;
340 -> 346 ;
347 [label="gini = 0.0\nsamples = 9\nvalue = [9, 0]"] ;
339 -> 347 ;
348 [label="gini = 0.0\nsamples = 1\nvalue = [0, 1]"] ;
338 -> 348 ;
349 [label="gini = 0.0\nsamples = 12\nvalue = [12, 0]"] ;
337 -> 349 ;
350 [label="RequestURL <= 0.0\ngini = 0.5\nsamples = 10\nvalue = [5, 5]"] ;
336 -> 350 ;
351 [label="gini = 0.0\nsamples = 5\nvalue = [5, 0]"] ;
350 -> 351 ;
352 [label="gini = 0.0\nsamples = 5\nvalue = [0, 5]"] ;
350 -> 352 ;
353 [label="SubDomains <= 0.5\ngini = 0.491\nsamples = 30\nvalue = [17, 13]"] ;
335 -> 353 ;
354 [label="SubDomains <= -0.5\ngini = 0.499\nsamples = 23\nvalue = [11, 12]"] ;
353 -> 354 ;
355 [label="RequestURL <= 0.0\ngini = 0.459\nsamples = 14\nvalue = [9, 5]"] ;
354 -> 355 ;
356 [label="WebsiteTraffic <= 0.0\ngini = 0.5\nsamples = 10\nvalue = [5, 5]"] ;
355 -> 356 ;
357 [label="gini = 0.0\nsamples = 3\nvalue = [3, 0]"] ;
356 -> 357 ;
358 [label="Index <= 843.5\ngini = 0.408\nsamples = 7\nvalue = [2, 5]"] ;
356 -> 358 ;
359 [label="Index <= 229.5\ngini = 0.5\nsamples = 2\nvalue = [1, 1]"] ;
358 -> 359 ;
360 [label="gini = 0.0\nsamples = 1\nvalue = [0, 1]"] ;
359 -> 360 ;
361 [label="gini = 0.0\nsamples = 1\nvalue = [1, 0]"] ;
359 -> 361 ;
362 [label="Index <= 4008.5\ngini = 0.32\nsamples = 5\nvalue = [1, 4]"] ;
358 -> 362 ;
363 [label="gini = 0.0\nsamples = 3\nvalue = [0, 3]"] ;
362 -> 363 ;
364 [label="Index <= 5343.5\ngini = 0.5\nsamples = 2\nvalue = [1, 1]"] ;
362 -> 364 ;
365 [label="gini = 0.0\nsamples = 1\nvalue = [1, 0]"] ;
364 -> 365 ;
366 [label="gini = 0.0\nsamples = 1\nvalue = [0, 1]"] ;
364 -> 366 ;
367 [label="gini = 0.0\nsamples = 4\nvalue = [4, 0]"] ;
355 -> 367 ;
368 [label="Index <= 6339.5\ngini = 0.346\nsamples = 9\nvalue = [2, 7]"] ;
354 -> 368 ;
369 [label="AgeofDomain <= 0.0\ngini = 0.219\nsamples = 8\nvalue = [1, 7]"] ;
368 -> 369 ;
370 [label="gini = 0.0\nsamples = 5\nvalue = [0, 5]"] ;
369 -> 370 ;
371 [label="PageRank <= 0.0\ngini = 0.444\nsamples = 3\nvalue = [1, 2]"] ;
369 -> 371 ;
372 [label="gini = 0.0\nsamples = 1\nvalue = [1, 0]"] ;
371 -> 372 ;
373 [label="gini = 0.0\nsamples = 2\nvalue = [0, 2]"] ;
371 -> 373 ;
374 [label="gini = 0.0\nsamples = 1\nvalue = [1, 0]"] ;
368 -> 374 ;
375 [label="WebsiteTraffic <= -0.5\ngini = 0.245\nsamples = 7\nvalue = [6, 1]"] ;
353 -> 375 ;
376 [label="gini = 0.0\nsamples = 1\nvalue = [0, 1]"] ;
375 -> 376 ;
377 [label="gini = 0.0\nsamples = 6\nvalue = [6, 0]"] ;
375 -> 377 ;
378 [label="gini = 0.0\nsamples = 7\nvalue = [7, 0]"] ;
318 -> 378 ;
379 [label="LinksInScriptTags <= 0.5\ngini = 0.444\nsamples = 6\nvalue = [2, 4]"] ;
317 -> 379 ;
380 [label="gini = 0.0\nsamples = 2\nvalue = [2, 0]"] ;
379 -> 380 ;
381 [label="gini = 0.0\nsamples = 4\nvalue = [0, 4]"] ;
379 -> 381 ;
382 [label="gini = 0.0\nsamples = 14\nvalue = [14, 0]"] ;
316 -> 382 ;
383 [label="gini = 0.0\nsamples = 2\nvalue = [0, 2]"] ;
315 -> 383 ;
384 [label="RequestURL <= 0.0\ngini = 0.459\nsamples = 14\nvalue = [5, 9]"] ;
314 -> 384 ;
385 [label="gini = 0.0\nsamples = 4\nvalue = [4, 0]"] ;
384 -> 385 ;
386 [label="WebsiteForwarding <= 0.5\ngini = 0.18\nsamples = 10\nvalue = [1, 9]"] ;
384 -> 386 ;
387 [label="gini = 0.0\nsamples = 9\nvalue = [0, 9]"] ;
386 -> 387 ;
388 [label="gini = 0.0\nsamples = 1\nvalue = [1, 0]"] ;
386 -> 388 ;
389 [label="gini = 0.0\nsamples = 77\nvalue = [0, 77]"] ;
3 -> 389 ;
390 [label="AnchorURL <= -0.5\ngini = 0.197\nsamples = 4716\nvalue = [521, 4195]"] ;
0 -> 390 [labeldistance=2.5, labelangle=-45, headlabel="False"] ;
391 [label="PrefixSuffix- <= 0.0\ngini = 0.237\nsamples = 189\nvalue = [163, 26]"] ;
390 -> 391 ;
392 [label="LinksPointingToPage <= -0.5\ngini = 0.137\nsamples = 176\nvalue = [163, 13]"] ;
391 -> 392 ;
393 [label="LongURL <= 0.0\ngini = 0.219\nsamples = 8\nvalue = [1, 7]"] ;
392 -> 393 ;
394 [label="gini = 0.0\nsamples = 7\nvalue = [0, 7]"] ;
393 -> 394 ;
395 [label="gini = 0.0\nsamples = 1\nvalue = [1, 0]"] ;
393 -> 395 ;
396 [label="InfoEmail <= 0.0\ngini = 0.069\nsamples = 168\nvalue = [162, 6]"] ;
392 -> 396 ;
397 [label="IframeRedirection <= 0.0\ngini = 0.432\nsamples = 19\nvalue = [13, 6]"] ;
396 -> 397 ;
398 [label="LinksInScriptTags <= 0.5\ngini = 0.444\nsamples = 9\nvalue = [3, 6]"] ;
397 -> 398 ;
399 [label="gini = 0.0\nsamples = 2\nvalue = [2, 0]"] ;
398 -> 399 ;
400 [label="ShortURL <= 0.0\ngini = 0.245\nsamples = 7\nvalue = [1, 6]"] ;
398 -> 400 ;
401 [label="gini = 0.0\nsamples = 1\nvalue = [1, 0]"] ;
400 -> 401 ;
402 [label="gini = 0.0\nsamples = 6\nvalue = [0, 6]"] ;
400 -> 402 ;
403 [label="gini = 0.0\nsamples = 10\nvalue = [10, 0]"] ;
397 -> 403 ;
404 [label="gini = 0.0\nsamples = 149\nvalue = [149, 0]"] ;
396 -> 404 ;
405 [label="gini = 0.0\nsamples = 13\nvalue = [0, 13]"] ;
391 -> 405 ;
406 [label="WebsiteTraffic <= 0.5\ngini = 0.146\nsamples = 4527\nvalue = [358, 4169]"] ;
390 -> 406 ;
407 [label="WebsiteTraffic <= -0.5\ngini = 0.284\nsamples = 1479\nvalue = [254, 1225]"] ;
406 -> 407 ;
408 [label="GoogleIndex <= 0.0\ngini = 0.025\nsamples = 704\nvalue = [9, 695]"] ;
407 -> 408 ;
409 [label="WebsiteForwarding <= 0.5\ngini = 0.14\nsamples = 53\nvalue = [4, 49]"] ;
408 -> 409 ;
410 [label="StatsReport <= 0.0\ngini = 0.041\nsamples = 48\nvalue = [1, 47]"] ;
409 -> 410 ;
411 [label="UsingIP <= 0.0\ngini = 0.245\nsamples = 7\nvalue = [1, 6]"] ;
410 -> 411 ;
412 [label="gini = 0.0\nsamples = 1\nvalue = [1, 0]"] ;
411 -> 412 ;
413 [label="gini = 0.0\nsamples = 6\nvalue = [0, 6]"] ;
411 -> 413 ;
414 [label="gini = 0.0\nsamples = 41\nvalue = [0, 41]"] ;
410 -> 414 ;
415 [label="SubDomains <= 0.5\ngini = 0.48\nsamples = 5\nvalue = [3, 2]"] ;
409 -> 415 ;
416 [label="gini = 0.0\nsamples = 3\nvalue = [3, 0]"] ;
415 -> 416 ;
417 [label="gini = 0.0\nsamples = 2\nvalue = [0, 2]"] ;
415 -> 417 ;
418 [label="LinksInScriptTags <= -0.5\ngini = 0.015\nsamples = 651\nvalue = [5, 646]"] ;
408 -> 418 ;
419 [label="LinksPointingToPage <= 0.5\ngini = 0.051\nsamples = 154\nvalue = [4, 150]"] ;
418 -> 419 ;
420 [label="RequestURL <= 0.0\ngini = 0.094\nsamples = 81\nvalue = [4, 77]"] ;
419 -> 420 ;
421 [label="UsingIP <= 0.0\ngini = 0.034\nsamples = 57\nvalue = [1, 56]"] ;
420 -> 421 ;
422 [label="AnchorURL <= 0.5\ngini = 0.32\nsamples = 5\nvalue = [1, 4]"] ;
421 -> 422 ;
423 [label="gini = 0.0\nsamples = 4\nvalue = [0, 4]"] ;
422 -> 423 ;
424 [label="gini = 0.0\nsamples = 1\nvalue = [1, 0]"] ;
422 -> 424 ;
425 [label="gini = 0.0\nsamples = 52\nvalue = [0, 52]"] ;
421 -> 425 ;
426 [label="Index <= 5610.0\ngini = 0.219\nsamples = 24\nvalue = [3, 21]"] ;
420 -> 426 ;
427 [label="gini = 0.0\nsamples = 1\nvalue = [1, 0]"] ;
426 -> 427 ;
428 [label="Index <= 9250.0\ngini = 0.159\nsamples = 23\nvalue = [2, 21]"] ;
426 -> 428 ;
429 [label="Index <= 9211.0\ngini = 0.375\nsamples = 8\nvalue = [2, 6]"] ;
428 -> 429 ;
430 [label="Index <= 8710.0\ngini = 0.245\nsamples = 7\nvalue = [1, 6]"] ;
429 -> 430 ;
431 [label="Index <= 8466.5\ngini = 0.444\nsamples = 3\nvalue = [1, 2]"] ;
430 -> 431 ;
432 [label="gini = 0.0\nsamples = 2\nvalue = [0, 2]"] ;
431 -> 432 ;
433 [label="gini = 0.0\nsamples = 1\nvalue = [1, 0]"] ;
431 -> 433 ;
434 [label="gini = 0.0\nsamples = 4\nvalue = [0, 4]"] ;
430 -> 434 ;
435 [label="gini = 0.0\nsamples = 1\nvalue = [1, 0]"] ;
429 -> 435 ;
436 [label="gini = 0.0\nsamples = 15\nvalue = [0, 15]"] ;
428 -> 436 ;
437 [label="gini = 0.0\nsamples = 73\nvalue = [0, 73]"] ;
419 -> 437 ;
438 [label="SubDomains <= 0.5\ngini = 0.004\nsamples = 497\nvalue = [1, 496]"] ;
418 -> 438 ;
439 [label="Index <= 9430.0\ngini = 0.014\nsamples = 143\nvalue = [1, 142]"] ;
438 -> 439 ;
440 [label="gini = 0.0\nsamples = 119\nvalue = [0, 119]"] ;
439 -> 440 ;
441 [label="Index <= 9496.0\ngini = 0.08\nsamples = 24\nvalue = [1, 23]"] ;
439 -> 441 ;
442 [label="gini = 0.0\nsamples = 1\nvalue = [1, 0]"] ;
441 -> 442 ;
443 [label="gini = 0.0\nsamples = 23\nvalue = [0, 23]"] ;
441 -> 443 ;
444 [label="gini = 0.0\nsamples = 354\nvalue = [0, 354]"] ;
438 -> 444 ;
445 [label="AnchorURL <= 0.5\ngini = 0.432\nsamples = 775\nvalue = [245, 530]"] ;
407 -> 445 ;
446 [label="SubDomains <= 0.5\ngini = 0.475\nsamples = 629\nvalue = [244, 385]"] ;
445 -> 446 ;
447 [label="PrefixSuffix- <= 0.0\ngini = 0.493\nsamples = 296\nvalue = [166, 130]"] ;
446 -> 447 ;
448 [label="DisableRightClick <= 0.0\ngini = 0.481\nsamples = 278\nvalue = [166, 112]"] ;
447 -> 448 ;
449 [label="gini = 0.0\nsamples = 8\nvalue = [0, 8]"] ;
448 -> 449 ;
450 [label="DNSRecording <= 0.0\ngini = 0.474\nsamples = 270\nvalue = [166, 104]"] ;
448 -> 450 ;
451 [label="LinksPointingToPage <= 0.5\ngini = 0.378\nsamples = 91\nvalue = [68, 23]"] ;
450 -> 451 ;
452 [label="UsingPopupWindow <= 0.0\ngini = 0.12\nsamples = 47\nvalue = [44, 3]"] ;
451 -> 452 ;
453 [label="AgeofDomain <= 0.0\ngini = 0.375\nsamples = 12\nvalue = [9, 3]"] ;
452 -> 453 ;
454 [label="SubDomains <= -0.5\ngini = 0.18\nsamples = 10\nvalue = [9, 1]"] ;
453 -> 454 ;
455 [label="gini = 0.0\nsamples = 9\nvalue = [9, 0]"] ;
454 -> 455 ;
456 [label="gini = 0.0\nsamples = 1\nvalue = [0, 1]"] ;
454 -> 456 ;
457 [label="gini = 0.0\nsamples = 2\nvalue = [0, 2]"] ;
453 -> 457 ;
458 [label="gini = 0.0\nsamples = 35\nvalue = [35, 0]"] ;
452 -> 458 ;
459 [label="StatsReport <= 0.0\ngini = 0.496\nsamples = 44\nvalue = [24, 20]"] ;
451 -> 459 ;
460 [label="gini = 0.0\nsamples = 6\nvalue = [6, 0]"] ;
459 -> 460 ;
461 [label="Index <= 312.0\ngini = 0.499\nsamples = 38\nvalue = [18, 20]"] ;
459 -> 461 ;
462 [label="gini = 0.0\nsamples = 3\nvalue = [3, 0]"] ;
461 -> 462 ;
463 [label="AbnormalURL <= 0.0\ngini = 0.49\nsamples = 35\nvalue = [15, 20]"] ;
461 -> 463 ;
464 [label="SubDomains <= -0.5\ngini = 0.278\nsamples = 6\nvalue = [1, 5]"] ;
463 -> 464 ;
465 [label="gini = 0.0\nsamples = 5\nvalue = [0, 5]"] ;
464 -> 465 ;
466 [label="gini = 0.0\nsamples = 1\nvalue = [1, 0]"] ;
464 -> 466 ;
467 [label="HTTPSDomainURL <= 0.0\ngini = 0.499\nsamples = 29\nvalue = [14, 15]"] ;
463 -> 467 ;
468 [label="gini = 0.0\nsamples = 4\nvalue = [4, 0]"] ;
467 -> 468 ;
469 [label="LinksInScriptTags <= -0.5\ngini = 0.48\nsamples = 25\nvalue = [10, 15]"] ;
467 -> 469 ;
470 [label="gini = 0.0\nsamples = 6\nvalue = [0, 6]"] ;
469 -> 470 ;
471 [label="DomainRegLen <= 0.0\ngini = 0.499\nsamples = 19\nvalue = [10, 9]"] ;
469 -> 471 ;
472 [label="Index <= 412.5\ngini = 0.397\nsamples = 11\nvalue = [8, 3]"] ;
471 -> 472 ;
473 [label="gini = 0.0\nsamples = 1\nvalue = [0, 1]"] ;
472 -> 473 ;
474 [label="Index <= 3970.5\ngini = 0.32\nsamples = 10\nvalue = [8, 2]"] ;
472 -> 474 ;
475 [label="Index <= 1640.5\ngini = 0.198\nsamples = 9\nvalue = [8, 1]"] ;
474 -> 475 ;
476 [label="Index <= 1295.0\ngini = 0.444\nsamples = 3\nvalue = [2, 1]"] ;
475 -> 476 ;
477 [label="gini = 0.0\nsamples = 2\nvalue = [2, 0]"] ;
476 -> 477 ;
478 [label="gini = 0.0\nsamples = 1\nvalue = [0, 1]"] ;
476 -> 478 ;
479 [label="gini = 0.0\nsamples = 6\nvalue = [6, 0]"] ;
475 -> 479 ;
480 [label="gini = 0.0\nsamples = 1\nvalue = [0, 1]"] ;
474 -> 480 ;
481 [label="Index <= 3683.5\ngini = 0.375\nsamples = 8\nvalue = [2, 6]"] ;
471 -> 481 ;
482 [label="gini = 0.0\nsamples = 5\nvalue = [0, 5]"] ;
481 -> 482 ;
483 [label="Index <= 4242.5\ngini = 0.444\nsamples = 3\nvalue = [2, 1]"] ;
481 -> 483 ;
484 [label="gini = 0.0\nsamples = 2\nvalue = [2, 0]"] ;
483 -> 484 ;
485 [label="gini = 0.0\nsamples = 1\nvalue = [0, 1]"] ;
483 -> 485 ;
486 [label="LinksInScriptTags <= -0.5\ngini = 0.495\nsamples = 179\nvalue = [98, 81]"] ;
450 -> 486 ;
487 [label="DomainRegLen <= 0.0\ngini = 0.407\nsamples = 81\nvalue = [58, 23]"] ;
486 -> 487 ;
488 [label="PageRank <= 0.0\ngini = 0.469\nsamples = 56\nvalue = [35, 21]"] ;
487 -> 488 ;
489 [label="RequestURL <= 0.0\ngini = 0.5\nsamples = 39\nvalue = [20, 19]"] ;
488 -> 489 ;
490 [label="UsingIP <= 0.0\ngini = 0.397\nsamples = 11\nvalue = [3, 8]"] ;
489 -> 490 ;
491 [label="gini = 0.0\nsamples = 2\nvalue = [2, 0]"] ;
490 -> 491 ;
492 [label="SubDomains <= -0.5\ngini = 0.198\nsamples = 9\nvalue = [1, 8]"] ;
490 -> 492 ;
493 [label="GoogleIndex <= 0.0\ngini = 0.5\nsamples = 2\nvalue = [1, 1]"] ;
492 -> 493 ;
494 [label="gini = 0.0\nsamples = 1\nvalue = [0, 1]"] ;
493 -> 494 ;
495 [label="gini = 0.0\nsamples = 1\nvalue = [1, 0]"] ;
493 -> 495 ;
496 [label="gini = 0.0\nsamples = 7\nvalue = [0, 7]"] ;
492 -> 496 ;
497 [label="Symbol@ <= 0.0\ngini = 0.477\nsamples = 28\nvalue = [17, 11]"] ;
489 -> 497 ;
498 [label="gini = 0.0\nsamples = 2\nvalue = [0, 2]"] ;
497 -> 498 ;
499 [label="Index <= 6548.5\ngini = 0.453\nsamples = 26\nvalue = [17, 9]"] ;
497 -> 499 ;
500 [label="LinksPointingToPage <= 0.5\ngini = 0.49\nsamples = 21\nvalue = [12, 9]"] ;
499 -> 500 ;
501 [label="Index <= 744.5\ngini = 0.444\nsamples = 18\nvalue = [12, 6]"] ;
500 -> 501 ;
502 [label="gini = 0.0\nsamples = 3\nvalue = [3, 0]"] ;
501 -> 502 ;
503 [label="Index <= 988.5\ngini = 0.48\nsamples = 15\nvalue = [9, 6]"] ;
501 -> 503 ;
504 [label="gini = 0.0\nsamples = 1\nvalue = [0, 1]"] ;
503 -> 504 ;
505 [label="Index <= 1786.0\ngini = 0.459\nsamples = 14\nvalue = [9, 5]"] ;
503 -> 505 ;
506 [label="gini = 0.0\nsamples = 2\nvalue = [2, 0]"] ;
505 -> 506 ;
507 [label="SubDomains <= -0.5\ngini = 0.486\nsamples = 12\nvalue = [7, 5]"] ;
505 -> 507 ;
508 [label="AgeofDomain <= 0.0\ngini = 0.5\nsamples = 10\nvalue = [5, 5]"] ;
507 -> 508 ;
509 [label="Index <= 4470.5\ngini = 0.444\nsamples = 6\nvalue = [4, 2]"] ;
508 -> 509 ;
510 [label="Index <= 2216.5\ngini = 0.32\nsamples = 5\nvalue = [4, 1]"] ;
509 -> 510 ;
511 [label="Index <= 1972.5\ngini = 0.5\nsamples = 2\nvalue = [1, 1]"] ;
510 -> 511 ;
512 [label="gini = 0.0\nsamples = 1\nvalue = [1, 0]"] ;
511 -> 512 ;
513 [label="gini = 0.0\nsamples = 1\nvalue = [0, 1]"] ;
511 -> 513 ;
514 [label="gini = 0.0\nsamples = 3\nvalue = [3, 0]"] ;
510 -> 514 ;
515 [label="gini = 0.0\nsamples = 1\nvalue = [0, 1]"] ;
509 -> 515 ;
516 [label="Index <= 4008.0\ngini = 0.375\nsamples = 4\nvalue = [1, 3]"] ;
508 -> 516 ;
517 [label="gini = 0.0\nsamples = 3\nvalue = [0, 3]"] ;
516 -> 517 ;
518 [label="gini = 0.0\nsamples = 1\nvalue = [1, 0]"] ;
516 -> 518 ;
519 [label="gini = 0.0\nsamples = 2\nvalue = [2, 0]"] ;
507 -> 519 ;
520 [label="gini = 0.0\nsamples = 3\nvalue = [0, 3]"] ;
500 -> 520 ;
521 [label="gini = 0.0\nsamples = 5\nvalue = [5, 0]"] ;
499 -> 521 ;
522 [label="StatusBarCust <= 0.0\ngini = 0.208\nsamples = 17\nvalue = [15, 2]"] ;
488 -> 522 ;
523 [label="RequestURL <= 0.0\ngini = 0.444\nsamples = 3\nvalue = [1, 2]"] ;
522 -> 523 ;
524 [label="gini = 0.0\nsamples = 1\nvalue = [1, 0]"] ;
523 -> 524 ;
525 [label="gini = 0.0\nsamples = 2\nvalue = [0, 2]"] ;
523 -> 525 ;
526 [label="gini = 0.0\nsamples = 14\nvalue = [14, 0]"] ;
522 -> 526 ;
527 [label="ServerFormHandler <= -0.5\ngini = 0.147\nsamples = 25\nvalue = [23, 2]"] ;
487 -> 527 ;
528 [label="Index <= 10175.0\ngini = 0.08\nsamples = 24\nvalue = [23, 1]"] ;
527 -> 528 ;
529 [label="gini = 0.0\nsamples = 21\nvalue = [21, 0]"] ;
528 -> 529 ;
530 [label="SubDomains <= -0.5\ngini = 0.444\nsamples = 3\nvalue = [2, 1]"] ;
528 -> 530 ;
531 [label="gini = 0.0\nsamples = 1\nvalue = [0, 1]"] ;
530 -> 531 ;
532 [label="gini = 0.0\nsamples = 2\nvalue = [2, 0]"] ;
530 -> 532 ;
533 [label="gini = 0.0\nsamples = 1\nvalue = [0, 1]"] ;
527 -> 533 ;
534 [label="SubDomains <= -0.5\ngini = 0.483\nsamples = 98\nvalue = [40, 58]"] ;
486 -> 534 ;
535 [label="Index <= 4927.0\ngini = 0.37\nsamples = 49\nvalue = [12, 37]"] ;
534 -> 535 ;
536 [label="AgeofDomain <= 0.0\ngini = 0.471\nsamples = 29\nvalue = [11, 18]"] ;
535 -> 536 ;
537 [label="UsingPopupWindow <= 0.0\ngini = 0.499\nsamples = 21\nvalue = [10, 11]"] ;
536 -> 537 ;
538 [label="gini = 0.0\nsamples = 3\nvalue = [3, 0]"] ;
537 -> 538 ;
539 [label="Index <= 209.5\ngini = 0.475\nsamples = 18\nvalue = [7, 11]"] ;
537 -> 539 ;
540 [label="gini = 0.0\nsamples = 1\nvalue = [1, 0]"] ;
539 -> 540 ;
541 [label="Index <= 4641.5\ngini = 0.457\nsamples = 17\nvalue = [6, 11]"] ;
539 -> 541 ;
542 [label="Index <= 4462.5\ngini = 0.43\nsamples = 16\nvalue = [5, 11]"] ;
541 -> 542 ;
543 [label="LinksInScriptTags <= 0.5\ngini = 0.459\nsamples = 14\nvalue = [5, 9]"] ;
542 -> 543 ;
544 [label="Index <= 2899.0\ngini = 0.346\nsamples = 9\nvalue = [2, 7]"] ;
543 -> 544 ;
545 [label="Index <= 1100.0\ngini = 0.245\nsamples = 7\nvalue = [1, 6]"] ;
544 -> 545 ;
546 [label="Index <= 714.0\ngini = 0.444\nsamples = 3\nvalue = [1, 2]"] ;
545 -> 546 ;
547 [label="gini = 0.0\nsamples = 2\nvalue = [0, 2]"] ;
546 -> 547 ;
548 [label="gini = 0.0\nsamples = 1\nvalue = [1, 0]"] ;
546 -> 548 ;
549 [label="gini = 0.0\nsamples = 4\nvalue = [0, 4]"] ;
545 -> 549 ;
550 [label="Index <= 3494.0\ngini = 0.5\nsamples = 2\nvalue = [1, 1]"] ;
544 -> 550 ;
551 [label="gini = 0.0\nsamples = 1\nvalue = [1, 0]"] ;
550 -> 551 ;
552 [label="gini = 0.0\nsamples = 1\nvalue = [0, 1]"] ;
550 -> 552 ;
553 [label="Index <= 439.5\ngini = 0.48\nsamples = 5\nvalue = [3, 2]"] ;
543 -> 553 ;
554 [label="gini = 0.0\nsamples = 1\nvalue = [1, 0]"] ;
553 -> 554 ;
555 [label="Index <= 1053.5\ngini = 0.5\nsamples = 4\nvalue = [2, 2]"] ;
553 -> 555 ;
556 [label="gini = 0.0\nsamples = 1\nvalue = [0, 1]"] ;
555 -> 556 ;
557 [label="Index <= 1667.5\ngini = 0.444\nsamples = 3\nvalue = [2, 1]"] ;
555 -> 557 ;
558 [label="gini = 0.0\nsamples = 1\nvalue = [1, 0]"] ;
557 -> 558 ;
559 [label="Index <= 3103.0\ngini = 0.5\nsamples = 2\nvalue = [1, 1]"] ;
557 -> 559 ;
560 [label="gini = 0.0\nsamples = 1\nvalue = [0, 1]"] ;
559 -> 560 ;
561 [label="gini = 0.0\nsamples = 1\nvalue = [1, 0]"] ;
559 -> 561 ;
562 [label="gini = 0.0\nsamples = 2\nvalue = [0, 2]"] ;
542 -> 562 ;
563 [label="gini = 0.0\nsamples = 1\nvalue = [1, 0]"] ;
541 -> 563 ;
564 [label="Index <= 2096.0\ngini = 0.219\nsamples = 8\nvalue = [1, 7]"] ;
536 -> 564 ;
565 [label="gini = 0.0\nsamples = 4\nvalue = [0, 4]"] ;
564 -> 565 ;
566 [label="Index <= 2738.0\ngini = 0.375\nsamples = 4\nvalue = [1, 3]"] ;
564 -> 566 ;
567 [label="gini = 0.0\nsamples = 1\nvalue = [1, 0]"] ;
566 -> 567 ;
568 [label="gini = 0.0\nsamples = 3\nvalue = [0, 3]"] ;
566 -> 568 ;
569 [label="Index <= 7945.5\ngini = 0.095\nsamples = 20\nvalue = [1, 19]"] ;
535 -> 569 ;
570 [label="gini = 0.0\nsamples = 14\nvalue = [0, 14]"] ;
569 -> 570 ;
571 [label="Index <= 8477.0\ngini = 0.278\nsamples = 6\nvalue = [1, 5]"] ;
569 -> 571 ;
572 [label="gini = 0.0\nsamples = 1\nvalue = [1, 0]"] ;
571 -> 572 ;
573 [label="gini = 0.0\nsamples = 5\nvalue = [0, 5]"] ;
571 -> 573 ;
574 [label="LinksInScriptTags <= 0.5\ngini = 0.49\nsamples = 49\nvalue = [28, 21]"] ;
534 -> 574 ;
575 [label="StatusBarCust <= 0.0\ngini = 0.48\nsamples = 35\nvalue = [14, 21]"] ;
574 -> 575 ;
576 [label="gini = 0.0\nsamples = 5\nvalue = [0, 5]"] ;
575 -> 576 ;
577 [label="DomainRegLen <= 0.0\ngini = 0.498\nsamples = 30\nvalue = [14, 16]"] ;
575 -> 577 ;
578 [label="UsingIP <= 0.0\ngini = 0.491\nsamples = 23\nvalue = [13, 10]"] ;
577 -> 578 ;
579 [label="WebsiteForwarding <= 0.5\ngini = 0.198\nsamples = 9\nvalue = [8, 1]"] ;
578 -> 579 ;
580 [label="gini = 0.0\nsamples = 8\nvalue = [8, 0]"] ;
579 -> 580 ;
581 [label="gini = 0.0\nsamples = 1\nvalue = [0, 1]"] ;
579 -> 581 ;
582 [label="AgeofDomain <= 0.0\ngini = 0.459\nsamples = 14\nvalue = [5, 9]"] ;
578 -> 582 ;
583 [label="Index <= 4667.5\ngini = 0.5\nsamples = 10\nvalue = [5, 5]"] ;
582 -> 583 ;
584 [label="gini = 0.0\nsamples = 2\nvalue = [2, 0]"] ;
583 -> 584 ;
585 [label="Index <= 6764.5\ngini = 0.469\nsamples = 8\nvalue = [3, 5]"] ;
583 -> 585 ;
586 [label="gini = 0.0\nsamples = 4\nvalue = [0, 4]"] ;
585 -> 586 ;
587 [label="LinksPointingToPage <= -0.5\ngini = 0.375\nsamples = 4\nvalue = [3, 1]"] ;
585 -> 587 ;
588 [label="gini = 0.0\nsamples = 1\nvalue = [0, 1]"] ;
587 -> 588 ;
589 [label="gini = 0.0\nsamples = 3\nvalue = [3, 0]"] ;
587 -> 589 ;
590 [label="gini = 0.0\nsamples = 4\nvalue = [0, 4]"] ;
582 -> 590 ;
591 [label="WebsiteForwarding <= 0.5\ngini = 0.245\nsamples = 7\nvalue = [1, 6]"] ;
577 -> 591 ;
592 [label="gini = 0.0\nsamples = 6\nvalue = [0, 6]"] ;
591 -> 592 ;
593 [label="gini = 0.0\nsamples = 1\nvalue = [1, 0]"] ;
591 -> 593 ;
594 [label="gini = 0.0\nsamples = 14\nvalue = [14, 0]"] ;
574 -> 594 ;
595 [label="gini = 0.0\nsamples = 18\nvalue = [0, 18]"] ;
447 -> 595 ;
596 [label="Index <= 4994.0\ngini = 0.359\nsamples = 333\nvalue = [78, 255]"] ;
446 -> 596 ;
597 [label="DNSRecording <= 0.0\ngini = 0.483\nsamples = 140\nvalue = [57, 83]"] ;
596 -> 597 ;
598 [label="AbnormalURL <= 0.0\ngini = 0.498\nsamples = 72\nvalue = [38, 34]"] ;
597 -> 598 ;
599 [label="Favicon <= 0.0\ngini = 0.26\nsamples = 13\nvalue = [11, 2]"] ;
598 -> 599 ;
600 [label="gini = 0.0\nsamples = 1\nvalue = [0, 1]"] ;
599 -> 600 ;
601 [label="Index <= 2425.5\ngini = 0.153\nsamples = 12\nvalue = [11, 1]"] ;
599 -> 601 ;
602 [label="Index <= 2381.0\ngini = 0.32\nsamples = 5\nvalue = [4, 1]"] ;
601 -> 602 ;
603 [label="gini = 0.0\nsamples = 4\nvalue = [4, 0]"] ;
602 -> 603 ;
604 [label="gini = 0.0\nsamples = 1\nvalue = [0, 1]"] ;
602 -> 604 ;
605 [label="gini = 0.0\nsamples = 7\nvalue = [7, 0]"] ;
601 -> 605 ;
606 [label="LinksPointingToPage <= 0.5\ngini = 0.496\nsamples = 59\nvalue = [27, 32]"] ;
598 -> 606 ;
607 [label="LongURL <= 0.0\ngini = 0.444\nsamples = 24\nvalue = [16, 8]"] ;
606 -> 607 ;
608 [label="PageRank <= 0.0\ngini = 0.363\nsamples = 21\nvalue = [16, 5]"] ;
607 -> 608 ;
609 [label="UsingPopupWindow <= 0.0\ngini = 0.266\nsamples = 19\nvalue = [16, 3]"] ;
608 -> 609 ;
610 [label="gini = 0.0\nsamples = 1\nvalue = [0, 1]"] ;
609 -> 610 ;
611 [label="AgeofDomain <= 0.0\ngini = 0.198\nsamples = 18\nvalue = [16, 2]"] ;
609 -> 611 ;
612 [label="LinksInScriptTags <= -0.5\ngini = 0.408\nsamples = 7\nvalue = [5, 2]"] ;
611 -> 612 ;
613 [label="gini = 0.0\nsamples = 5\nvalue = [5, 0]"] ;
612 -> 613 ;
614 [label="gini = 0.0\nsamples = 2\nvalue = [0, 2]"] ;
612 -> 614 ;
615 [label="gini = 0.0\nsamples = 11\nvalue = [11, 0]"] ;
611 -> 615 ;
616 [label="gini = 0.0\nsamples = 2\nvalue = [0, 2]"] ;
608 -> 616 ;
617 [label="gini = 0.0\nsamples = 3\nvalue = [0, 3]"] ;
607 -> 617 ;
618 [label="LongURL <= 0.5\ngini = 0.431\nsamples = 35\nvalue = [11, 24]"] ;
606 -> 618 ;
619 [label="InfoEmail <= 0.0\ngini = 0.35\nsamples = 31\nvalue = [7, 24]"] ;
618 -> 619 ;
620 [label="gini = 0.0\nsamples = 3\nvalue = [3, 0]"] ;
619 -> 620 ;
621 [label="DomainRegLen <= 0.0\ngini = 0.245\nsamples = 28\nvalue = [4, 24]"] ;
619 -> 621 ;
622 [label="gini = 0.0\nsamples = 16\nvalue = [0, 16]"] ;
621 -> 622 ;
623 [label="GoogleIndex <= 0.0\ngini = 0.444\nsamples = 12\nvalue = [4, 8]"] ;
621 -> 623 ;
624 [label="gini = 0.0\nsamples = 2\nvalue = [2, 0]"] ;
623 -> 624 ;
625 [label="LinksInScriptTags <= -0.5\ngini = 0.32\nsamples = 10\nvalue = [2, 8]"] ;
623 -> 625 ;
626 [label="gini = 0.0\nsamples = 4\nvalue = [0, 4]"] ;
625 -> 626 ;
627 [label="RequestURL <= 0.0\ngini = 0.444\nsamples = 6\nvalue = [2, 4]"] ;
625 -> 627 ;
628 [label="gini = 0.0\nsamples = 3\nvalue = [0, 3]"] ;
627 -> 628 ;
629 [label="Index <= 3280.5\ngini = 0.444\nsamples = 3\nvalue = [2, 1]"] ;
627 -> 629 ;
630 [label="gini = 0.0\nsamples = 2\nvalue = [2, 0]"] ;
629 -> 630 ;
631 [label="gini = 0.0\nsamples = 1\nvalue = [0, 1]"] ;
629 -> 631 ;
632 [label="gini = 0.0\nsamples = 4\nvalue = [4, 0]"] ;
618 -> 632 ;
633 [label="GoogleIndex <= 0.0\ngini = 0.403\nsamples = 68\nvalue = [19, 49]"] ;
597 -> 633 ;
634 [label="PrefixSuffix- <= 0.0\ngini = 0.496\nsamples = 11\nvalue = [6, 5]"] ;
633 -> 634 ;
635 [label="Favicon <= 0.0\ngini = 0.245\nsamples = 7\nvalue = [6, 1]"] ;
634 -> 635 ;
636 [label="gini = 0.0\nsamples = 1\nvalue = [0, 1]"] ;
635 -> 636 ;
637 [label="gini = 0.0\nsamples = 6\nvalue = [6, 0]"] ;
635 -> 637 ;
638 [label="gini = 0.0\nsamples = 4\nvalue = [0, 4]"] ;
634 -> 638 ;
639 [label="Index <= 114.0\ngini = 0.352\nsamples = 57\nvalue = [13, 44]"] ;
633 -> 639 ;
640 [label="gini = 0.0\nsamples = 1\nvalue = [1, 0]"] ;
639 -> 640 ;
641 [label="StatsReport <= 0.0\ngini = 0.337\nsamples = 56\nvalue = [12, 44]"] ;
639 -> 641 ;
642 [label="gini = 0.0\nsamples = 9\nvalue = [0, 9]"] ;
641 -> 642 ;
643 [label="LinksInScriptTags <= 0.5\ngini = 0.38\nsamples = 47\nvalue = [12, 35]"] ;
641 -> 643 ;
644 [label="HTTPSDomainURL <= 0.0\ngini = 0.301\nsamples = 38\nvalue = [7, 31]"] ;
643 -> 644 ;
645 [label="Redirecting// <= 0.0\ngini = 0.444\nsamples = 3\nvalue = [2, 1]"] ;
644 -> 645 ;
646 [label="gini = 0.0\nsamples = 1\nvalue = [0, 1]"] ;
645 -> 646 ;
647 [label="gini = 0.0\nsamples = 2\nvalue = [2, 0]"] ;
645 -> 647 ;
648 [label="LinksInScriptTags <= -0.5\ngini = 0.245\nsamples = 35\nvalue = [5, 30]"] ;
644 -> 648 ;
649 [label="AgeofDomain <= 0.0\ngini = 0.375\nsamples = 16\nvalue = [4, 12]"] ;
648 -> 649 ;
650 [label="gini = 0.0\nsamples = 2\nvalue = [2, 0]"] ;
649 -> 650 ;
651 [label="Index <= 2449.5\ngini = 0.245\nsamples = 14\nvalue = [2, 12]"] ;
649 -> 651 ;
652 [label="Index <= 1886.0\ngini = 0.346\nsamples = 9\nvalue = [2, 7]"] ;
651 -> 652 ;
653 [label="Index <= 761.0\ngini = 0.219\nsamples = 8\nvalue = [1, 7]"] ;
652 -> 653 ;
654 [label="Index <= 658.0\ngini = 0.375\nsamples = 4\nvalue = [1, 3]"] ;
653 -> 654 ;
655 [label="gini = 0.0\nsamples = 3\nvalue = [0, 3]"] ;
654 -> 655 ;
656 [label="gini = 0.0\nsamples = 1\nvalue = [1, 0]"] ;
654 -> 656 ;
657 [label="gini = 0.0\nsamples = 4\nvalue = [0, 4]"] ;
653 -> 657 ;
658 [label="gini = 0.0\nsamples = 1\nvalue = [1, 0]"] ;
652 -> 658 ;
659 [label="gini = 0.0\nsamples = 5\nvalue = [0, 5]"] ;
651 -> 659 ;
660 [label="Index <= 2925.0\ngini = 0.1\nsamples = 19\nvalue = [1, 18]"] ;
648 -> 660 ;
661 [label="gini = 0.0\nsamples = 9\nvalue = [0, 9]"] ;
660 -> 661 ;
662 [label="Index <= 3273.5\ngini = 0.18\nsamples = 10\nvalue = [1, 9]"] ;
660 -> 662 ;
663 [label="gini = 0.0\nsamples = 1\nvalue = [1, 0]"] ;
662 -> 663 ;
664 [label="gini = 0.0\nsamples = 9\nvalue = [0, 9]"] ;
662 -> 664 ;
665 [label="HTTPSDomainURL <= 0.0\ngini = 0.494\nsamples = 9\nvalue = [5, 4]"] ;
643 -> 665 ;
666 [label="gini = 0.0\nsamples = 4\nvalue = [0, 4]"] ;
665 -> 666 ;
667 [label="gini = 0.0\nsamples = 5\nvalue = [5, 0]"] ;
665 -> 667 ;
668 [label="ServerFormHandler <= -0.5\ngini = 0.194\nsamples = 193\nvalue = [21, 172]"] ;
596 -> 668 ;
669 [label="StatsReport <= 0.0\ngini = 0.285\nsamples = 122\nvalue = [21, 101]"] ;
668 -> 669 ;
670 [label="gini = 0.0\nsamples = 3\nvalue = [3, 0]"] ;
669 -> 670 ;
671 [label="LinksInScriptTags <= -0.5\ngini = 0.257\nsamples = 119\nvalue = [18, 101]"] ;
669 -> 671 ;
672 [label="Index <= 5981.5\ngini = 0.365\nsamples = 50\nvalue = [12, 38]"] ;
671 -> 672 ;
673 [label="gini = 0.0\nsamples = 9\nvalue = [0, 9]"] ;
672 -> 673 ;
674 [label="Index <= 6732.0\ngini = 0.414\nsamples = 41\nvalue = [12, 29]"] ;
672 -> 674 ;
675 [label="Index <= 6669.5\ngini = 0.49\nsamples = 7\nvalue = [4, 3]"] ;
674 -> 675 ;
676 [label="Index <= 6365.0\ngini = 0.48\nsamples = 5\nvalue = [2, 3]"] ;
675 -> 676 ;
677 [label="PageRank <= 0.0\ngini = 0.444\nsamples = 3\nvalue = [2, 1]"] ;
676 -> 677 ;
678 [label="gini = 0.0\nsamples = 2\nvalue = [2, 0]"] ;
677 -> 678 ;
679 [label="gini = 0.0\nsamples = 1\nvalue = [0, 1]"] ;
677 -> 679 ;
680 [label="gini = 0.0\nsamples = 2\nvalue = [0, 2]"] ;
676 -> 680 ;
681 [label="gini = 0.0\nsamples = 2\nvalue = [2, 0]"] ;
675 -> 681 ;
682 [label="DomainRegLen <= 0.0\ngini = 0.36\nsamples = 34\nvalue = [8, 26]"] ;
674 -> 682 ;
683 [label="Index <= 9792.5\ngini = 0.293\nsamples = 28\nvalue = [5, 23]"] ;
682 -> 683 ;
684 [label="Index <= 9743.5\ngini = 0.401\nsamples = 18\nvalue = [5, 13]"] ;
683 -> 684 ;
685 [label="WebsiteForwarding <= 0.5\ngini = 0.36\nsamples = 17\nvalue = [4, 13]"] ;
684 -> 685 ;
686 [label="Index <= 9592.5\ngini = 0.444\nsamples = 12\nvalue = [4, 8]"] ;
685 -> 686 ;
687 [label="Index <= 8972.5\ngini = 0.397\nsamples = 11\nvalue = [3, 8]"] ;
686 -> 687 ;
688 [label="Index <= 8285.0\ngini = 0.469\nsamples = 8\nvalue = [3, 5]"] ;
687 -> 688 ;
689 [label="UsingPopupWindow <= 0.0\ngini = 0.408\nsamples = 7\nvalue = [2, 5]"] ;
688 -> 689 ;
690 [label="gini = 0.0\nsamples = 1\nvalue = [1, 0]"] ;
689 -> 690 ;
691 [label="LinksPointingToPage <= 0.5\ngini = 0.278\nsamples = 6\nvalue = [1, 5]"] ;
689 -> 691 ;
692 [label="UsingIP <= 0.0\ngini = 0.444\nsamples = 3\nvalue = [1, 2]"] ;
691 -> 692 ;
693 [label="gini = 0.0\nsamples = 1\nvalue = [0, 1]"] ;
692 -> 693 ;
694 [label="Index <= 7367.5\ngini = 0.5\nsamples = 2\nvalue = [1, 1]"] ;
692 -> 694 ;
695 [label="gini = 0.0\nsamples = 1\nvalue = [0, 1]"] ;
694 -> 695 ;
696 [label="gini = 0.0\nsamples = 1\nvalue = [1, 0]"] ;
694 -> 696 ;
697 [label="gini = 0.0\nsamples = 3\nvalue = [0, 3]"] ;
691 -> 697 ;
698 [label="gini = 0.0\nsamples = 1\nvalue = [1, 0]"] ;
688 -> 698 ;
699 [label="gini = 0.0\nsamples = 3\nvalue = [0, 3]"] ;
687 -> 699 ;
700 [label="gini = 0.0\nsamples = 1\nvalue = [1, 0]"] ;
686 -> 700 ;
701 [label="gini = 0.0\nsamples = 5\nvalue = [0, 5]"] ;
685 -> 701 ;
702 [label="gini = 0.0\nsamples = 1\nvalue = [1, 0]"] ;
684 -> 702 ;
703 [label="gini = 0.0\nsamples = 10\nvalue = [0, 10]"] ;
683 -> 703 ;
704 [label="PageRank <= 0.0\ngini = 0.5\nsamples = 6\nvalue = [3, 3]"] ;
682 -> 704 ;
705 [label="gini = 0.0\nsamples = 3\nvalue = [3, 0]"] ;
704 -> 705 ;
706 [label="gini = 0.0\nsamples = 3\nvalue = [0, 3]"] ;
704 -> 706 ;
707 [label="Index <= 8054.0\ngini = 0.159\nsamples = 69\nvalue = [6, 63]"] ;
671 -> 707 ;
708 [label="UsingIP <= 0.0\ngini = 0.266\nsamples = 38\nvalue = [6, 32]"] ;
707 -> 708 ;
709 [label="Index <= 7533.5\ngini = 0.459\nsamples = 14\nvalue = [5, 9]"] ;
708 -> 709 ;
710 [label="ShortURL <= 0.0\ngini = 0.375\nsamples = 12\nvalue = [3, 9]"] ;
709 -> 710 ;
711 [label="gini = 0.0\nsamples = 2\nvalue = [2, 0]"] ;
710 -> 711 ;
712 [label="RequestURL <= 0.0\ngini = 0.18\nsamples = 10\nvalue = [1, 9]"] ;
710 -> 712 ;
713 [label="gini = 0.0\nsamples = 1\nvalue = [1, 0]"] ;
712 -> 713 ;
714 [label="gini = 0.0\nsamples = 9\nvalue = [0, 9]"] ;
712 -> 714 ;
715 [label="gini = 0.0\nsamples = 2\nvalue = [2, 0]"] ;
709 -> 715 ;
716 [label="WebsiteForwarding <= 0.5\ngini = 0.08\nsamples = 24\nvalue = [1, 23]"] ;
708 -> 716 ;
717 [label="gini = 0.0\nsamples = 20\nvalue = [0, 20]"] ;
716 -> 717 ;
718 [label="UsingPopupWindow <= 0.0\ngini = 0.375\nsamples = 4\nvalue = [1, 3]"] ;
716 -> 718 ;
719 [label="gini = 0.0\nsamples = 3\nvalue = [0, 3]"] ;
718 -> 719 ;
720 [label="gini = 0.0\nsamples = 1\nvalue = [1, 0]"] ;
718 -> 720 ;
721 [label="gini = 0.0\nsamples = 31\nvalue = [0, 31]"] ;
707 -> 721 ;
722 [label="gini = 0.0\nsamples = 71\nvalue = [0, 71]"] ;
668 -> 722 ;
723 [label="StatusBarCust <= 0.0\ngini = 0.014\nsamples = 146\nvalue = [1, 145]"] ;
445 -> 723 ;
724 [label="PageRank <= 0.0\ngini = 0.245\nsamples = 7\nvalue = [1, 6]"] ;
723 -> 724 ;
725 [label="gini = 0.0\nsamples = 6\nvalue = [0, 6]"] ;
724 -> 725 ;
726 [label="gini = 0.0\nsamples = 1\nvalue = [1, 0]"] ;
724 -> 726 ;
727 [label="gini = 0.0\nsamples = 139\nvalue = [0, 139]"] ;
723 -> 727 ;
728 [label="LinksInScriptTags <= -0.5\ngini = 0.066\nsamples = 3048\nvalue = [104, 2944]"] ;
406 -> 728 ;
729 [label="ServerFormHandler <= -0.5\ngini = 0.183\nsamples = 804\nvalue = [82, 722]"] ;
728 -> 729 ;
730 [label="SubDomains <= 0.5\ngini = 0.261\nsamples = 531\nvalue = [82, 449]"] ;
729 -> 730 ;
731 [label="LinksPointingToPage <= 0.5\ngini = 0.366\nsamples = 307\nvalue = [74, 233]"] ;
730 -> 731 ;
732 [label="InfoEmail <= 0.0\ngini = 0.489\nsamples = 134\nvalue = [57, 77]"] ;
731 -> 732 ;
733 [label="DomainRegLen <= 0.0\ngini = 0.147\nsamples = 25\nvalue = [2, 23]"] ;
732 -> 733 ;
734 [label="Symbol@ <= 0.0\ngini = 0.08\nsamples = 24\nvalue = [1, 23]"] ;
733 -> 734 ;
735 [label="RequestURL <= 0.0\ngini = 0.375\nsamples = 4\nvalue = [1, 3]"] ;
734 -> 735 ;
736 [label="gini = 0.0\nsamples = 1\nvalue = [1, 0]"] ;
735 -> 736 ;
737 [label="gini = 0.0\nsamples = 3\nvalue = [0, 3]"] ;
735 -> 737 ;
738 [label="gini = 0.0\nsamples = 20\nvalue = [0, 20]"] ;
734 -> 738 ;
739 [label="gini = 0.0\nsamples = 1\nvalue = [1, 0]"] ;
733 -> 739 ;
740 [label="GoogleIndex <= 0.0\ngini = 0.5\nsamples = 109\nvalue = [55, 54]"] ;
732 -> 740 ;
741 [label="LongURL <= 0.0\ngini = 0.133\nsamples = 14\nvalue = [13, 1]"] ;
740 -> 741 ;
742 [label="gini = 0.0\nsamples = 13\nvalue = [13, 0]"] ;
741 -> 742 ;
743 [label="gini = 0.0\nsamples = 1\nvalue = [0, 1]"] ;
741 -> 743 ;
744 [label="AgeofDomain <= 0.0\ngini = 0.493\nsamples = 95\nvalue = [42, 53]"] ;
740 -> 744 ;
745 [label="RequestURL <= 0.0\ngini = 0.491\nsamples = 60\nvalue = [34, 26]"] ;
744 -> 745 ;
746 [label="AbnormalURL <= 0.0\ngini = 0.334\nsamples = 33\nvalue = [26, 7]"] ;
745 -> 746 ;
747 [label="gini = 0.0\nsamples = 2\nvalue = [0, 2]"] ;
746 -> 747 ;
748 [label="SubDomains <= -0.5\ngini = 0.271\nsamples = 31\nvalue = [26, 5]"] ;
746 -> 748 ;
749 [label="gini = 0.0\nsamples = 18\nvalue = [18, 0]"] ;
748 -> 749 ;
750 [label="Index <= 4650.5\ngini = 0.473\nsamples = 13\nvalue = [8, 5]"] ;
748 -> 750 ;
751 [label="gini = 0.0\nsamples = 5\nvalue = [0, 5]"] ;
750 -> 751 ;
752 [label="gini = 0.0\nsamples = 8\nvalue = [8, 0]"] ;
750 -> 752 ;
753 [label="DomainRegLen <= 0.0\ngini = 0.417\nsamples = 27\nvalue = [8, 19]"] ;
745 -> 753 ;
754 [label="SubDomains <= -0.5\ngini = 0.33\nsamples = 24\nvalue = [5, 19]"] ;
753 -> 754 ;
755 [label="PageRank <= 0.0\ngini = 0.444\nsamples = 12\nvalue = [4, 8]"] ;
754 -> 755 ;
756 [label="Index <= 5012.5\ngini = 0.397\nsamples = 11\nvalue = [3, 8]"] ;
755 -> 756 ;
757 [label="Index <= 3390.0\ngini = 0.49\nsamples = 7\nvalue = [3, 4]"] ;
756 -> 757 ;
758 [label="Index <= 2533.5\ngini = 0.444\nsamples = 6\nvalue = [2, 4]"] ;
757 -> 758 ;
759 [label="Index <= 1028.0\ngini = 0.5\nsamples = 4\nvalue = [2, 2]"] ;
758 -> 759 ;
760 [label="gini = 0.0\nsamples = 1\nvalue = [0, 1]"] ;
759 -> 760 ;
761 [label="Index <= 1642.0\ngini = 0.444\nsamples = 3\nvalue = [2, 1]"] ;
759 -> 761 ;
762 [label="gini = 0.0\nsamples = 1\nvalue = [1, 0]"] ;
761 -> 762 ;
763 [label="Index <= 2256.0\ngini = 0.5\nsamples = 2\nvalue = [1, 1]"] ;
761 -> 763 ;
764 [label="gini = 0.0\nsamples = 1\nvalue = [0, 1]"] ;
763 -> 764 ;
765 [label="gini = 0.0\nsamples = 1\nvalue = [1, 0]"] ;
763 -> 765 ;
766 [label="gini = 0.0\nsamples = 2\nvalue = [0, 2]"] ;
758 -> 766 ;
767 [label="gini = 0.0\nsamples = 1\nvalue = [1, 0]"] ;
757 -> 767 ;
768 [label="gini = 0.0\nsamples = 4\nvalue = [0, 4]"] ;
756 -> 768 ;
769 [label="gini = 0.0\nsamples = 1\nvalue = [1, 0]"] ;
755 -> 769 ;
770 [label="Index <= 5265.0\ngini = 0.153\nsamples = 12\nvalue = [1, 11]"] ;
754 -> 770 ;
771 [label="gini = 0.0\nsamples = 9\nvalue = [0, 9]"] ;
770 -> 771 ;
772 [label="PageRank <= 0.0\ngini = 0.444\nsamples = 3\nvalue = [1, 2]"] ;
770 -> 772 ;
773 [label="gini = 0.0\nsamples = 1\nvalue = [1, 0]"] ;
772 -> 773 ;
774 [label="gini = 0.0\nsamples = 2\nvalue = [0, 2]"] ;
772 -> 774 ;
775 [label="gini = 0.0\nsamples = 3\nvalue = [3, 0]"] ;
753 -> 775 ;
776 [label="Index <= 8462.0\ngini = 0.353\nsamples = 35\nvalue = [8, 27]"] ;
744 -> 776 ;
777 [label="RequestURL <= 0.0\ngini = 0.153\nsamples = 24\nvalue = [2, 22]"] ;
776 -> 777 ;
778 [label="gini = 0.0\nsamples = 10\nvalue = [0, 10]"] ;
777 -> 778 ;
779 [label="Index <= 4153.5\ngini = 0.245\nsamples = 14\nvalue = [2, 12]"] ;
777 -> 779 ;
780 [label="Index <= 3875.0\ngini = 0.408\nsamples = 7\nvalue = [2, 5]"] ;
779 -> 780 ;
781 [label="Index <= 2146.0\ngini = 0.278\nsamples = 6\nvalue = [1, 5]"] ;
780 -> 781 ;
782 [label="gini = 0.0\nsamples = 3\nvalue = [0, 3]"] ;
781 -> 782 ;
783 [label="Index <= 2489.0\ngini = 0.444\nsamples = 3\nvalue = [1, 2]"] ;
781 -> 783 ;
784 [label="gini = 0.0\nsamples = 1\nvalue = [1, 0]"] ;
783 -> 784 ;
785 [label="gini = 0.0\nsamples = 2\nvalue = [0, 2]"] ;
783 -> 785 ;
786 [label="gini = 0.0\nsamples = 1\nvalue = [1, 0]"] ;
780 -> 786 ;
787 [label="gini = 0.0\nsamples = 7\nvalue = [0, 7]"] ;
779 -> 787 ;
788 [label="Index <= 10406.5\ngini = 0.496\nsamples = 11\nvalue = [6, 5]"] ;
776 -> 788 ;
789 [label="AnchorURL <= 0.5\ngini = 0.444\nsamples = 9\nvalue = [6, 3]"] ;
788 -> 789 ;
790 [label="Index <= 10292.5\ngini = 0.375\nsamples = 8\nvalue = [6, 2]"] ;
789 -> 790 ;
791 [label="Index <= 10166.5\ngini = 0.444\nsamples = 6\nvalue = [4, 2]"] ;
790 -> 791 ;
792 [label="Index <= 9072.0\ngini = 0.32\nsamples = 5\nvalue = [4, 1]"] ;
791 -> 792 ;
793 [label="PageRank <= 0.0\ngini = 0.5\nsamples = 2\nvalue = [1, 1]"] ;
792 -> 793 ;
794 [label="gini = 0.0\nsamples = 1\nvalue = [0, 1]"] ;
793 -> 794 ;
795 [label="gini = 0.0\nsamples = 1\nvalue = [1, 0]"] ;
793 -> 795 ;
796 [label="gini = 0.0\nsamples = 3\nvalue = [3, 0]"] ;
792 -> 796 ;
797 [label="gini = 0.0\nsamples = 1\nvalue = [0, 1]"] ;
791 -> 797 ;
798 [label="gini = 0.0\nsamples = 2\nvalue = [2, 0]"] ;
790 -> 798 ;
799 [label="gini = 0.0\nsamples = 1\nvalue = [0, 1]"] ;
789 -> 799 ;
800 [label="gini = 0.0\nsamples = 2\nvalue = [0, 2]"] ;
788 -> 800 ;
801 [label="Index <= 7484.5\ngini = 0.177\nsamples = 173\nvalue = [17, 156]"] ;
731 -> 801 ;
802 [label="AnchorURL <= 0.5\ngini = 0.112\nsamples = 151\nvalue = [9, 142]"] ;
801 -> 802 ;
803 [label="PageRank <= 0.0\ngini = 0.173\nsamples = 94\nvalue = [9, 85]"] ;
802 -> 803 ;
804 [label="ShortURL <= 0.0\ngini = 0.245\nsamples = 63\nvalue = [9, 54]"] ;
803 -> 804 ;
805 [label="gini = 0.0\nsamples = 17\nvalue = [0, 17]"] ;
804 -> 805 ;
806 [label="Favicon <= 0.0\ngini = 0.315\nsamples = 46\nvalue = [9, 37]"] ;
804 -> 806 ;
807 [label="gini = 0.0\nsamples = 10\nvalue = [0, 10]"] ;
806 -> 807 ;
808 [label="SubDomains <= -0.5\ngini = 0.375\nsamples = 36\nvalue = [9, 27]"] ;
806 -> 808 ;
809 [label="RequestURL <= 0.0\ngini = 0.236\nsamples = 22\nvalue = [3, 19]"] ;
808 -> 809 ;
810 [label="AgeofDomain <= 0.0\ngini = 0.48\nsamples = 5\nvalue = [3, 2]"] ;
809 -> 810 ;
811 [label="gini = 0.0\nsamples = 3\nvalue = [3, 0]"] ;
810 -> 811 ;
812 [label="gini = 0.0\nsamples = 2\nvalue = [0, 2]"] ;
810 -> 812 ;
813 [label="gini = 0.0\nsamples = 17\nvalue = [0, 17]"] ;
809 -> 813 ;
814 [label="UsingIP <= 0.0\ngini = 0.49\nsamples = 14\nvalue = [6, 8]"] ;
808 -> 814 ;
815 [label="gini = 0.0\nsamples = 2\nvalue = [2, 0]"] ;
814 -> 815 ;
816 [label="RequestURL <= 0.0\ngini = 0.444\nsamples = 12\nvalue = [4, 8]"] ;
814 -> 816 ;
817 [label="gini = 0.0\nsamples = 5\nvalue = [0, 5]"] ;
816 -> 817 ;
818 [label="Index <= 726.5\ngini = 0.49\nsamples = 7\nvalue = [4, 3]"] ;
816 -> 818 ;
819 [label="gini = 0.0\nsamples = 1\nvalue = [0, 1]"] ;
818 -> 819 ;
820 [label="Index <= 3157.5\ngini = 0.444\nsamples = 6\nvalue = [4, 2]"] ;
818 -> 820 ;
821 [label="gini = 0.0\nsamples = 3\nvalue = [3, 0]"] ;
820 -> 821 ;
822 [label="Index <= 3880.0\ngini = 0.444\nsamples = 3\nvalue = [1, 2]"] ;
820 -> 822 ;
823 [label="gini = 0.0\nsamples = 1\nvalue = [0, 1]"] ;
822 -> 823 ;
824 [label="Index <= 4235.0\ngini = 0.5\nsamples = 2\nvalue = [1, 1]"] ;
822 -> 824 ;
825 [label="gini = 0.0\nsamples = 1\nvalue = [1, 0]"] ;
824 -> 825 ;
826 [label="gini = 0.0\nsamples = 1\nvalue = [0, 1]"] ;
824 -> 826 ;
827 [label="gini = 0.0\nsamples = 31\nvalue = [0, 31]"] ;
803 -> 827 ;
828 [label="gini = 0.0\nsamples = 57\nvalue = [0, 57]"] ;
802 -> 828 ;
829 [label="InfoEmail <= 0.0\ngini = 0.463\nsamples = 22\nvalue = [8, 14]"] ;
801 -> 829 ;
830 [label="gini = 0.0\nsamples = 3\nvalue = [3, 0]"] ;
829 -> 830 ;
831 [label="Index <= 8510.0\ngini = 0.388\nsamples = 19\nvalue = [5, 14]"] ;
829 -> 831 ;
832 [label="HTTPSDomainURL <= 0.0\ngini = 0.5\nsamples = 8\nvalue = [4, 4]"] ;
831 -> 832 ;
833 [label="gini = 0.0\nsamples = 3\nvalue = [0, 3]"] ;
832 -> 833 ;
834 [label="Index <= 7781.0\ngini = 0.32\nsamples = 5\nvalue = [4, 1]"] ;
832 -> 834 ;
835 [label="SubDomains <= -0.5\ngini = 0.5\nsamples = 2\nvalue = [1, 1]"] ;
834 -> 835 ;
836 [label="gini = 0.0\nsamples = 1\nvalue = [0, 1]"] ;
835 -> 836 ;
837 [label="gini = 0.0\nsamples = 1\nvalue = [1, 0]"] ;
835 -> 837 ;
838 [label="gini = 0.0\nsamples = 3\nvalue = [3, 0]"] ;
834 -> 838 ;
839 [label="UsingPopupWindow <= 0.0\ngini = 0.165\nsamples = 11\nvalue = [1, 10]"] ;
831 -> 839 ;
840 [label="gini = 0.0\nsamples = 1\nvalue = [1, 0]"] ;
839 -> 840 ;
841 [label="gini = 0.0\nsamples = 10\nvalue = [0, 10]"] ;
839 -> 841 ;
842 [label="Index <= 8269.0\ngini = 0.069\nsamples = 224\nvalue = [8, 216]"] ;
730 -> 842 ;
843 [label="Index <= 6606.5\ngini = 0.011\nsamples = 183\nvalue = [1, 182]"] ;
842 -> 843 ;
844 [label="gini = 0.0\nsamples = 142\nvalue = [0, 142]"] ;
843 -> 844 ;
845 [label="Index <= 6636.0\ngini = 0.048\nsamples = 41\nvalue = [1, 40]"] ;
843 -> 845 ;
846 [label="gini = 0.0\nsamples = 1\nvalue = [1, 0]"] ;
845 -> 846 ;
847 [label="gini = 0.0\nsamples = 40\nvalue = [0, 40]"] ;
845 -> 847 ;
848 [label="Index <= 8446.0\ngini = 0.283\nsamples = 41\nvalue = [7, 34]"] ;
842 -> 848 ;
849 [label="UsingIP <= 0.0\ngini = 0.444\nsamples = 3\nvalue = [2, 1]"] ;
848 -> 849 ;
850 [label="gini = 0.0\nsamples = 2\nvalue = [2, 0]"] ;
849 -> 850 ;
851 [label="gini = 0.0\nsamples = 1\nvalue = [0, 1]"] ;
849 -> 851 ;
852 [label="RequestURL <= 0.0\ngini = 0.229\nsamples = 38\nvalue = [5, 33]"] ;
848 -> 852 ;
853 [label="AnchorURL <= 0.5\ngini = 0.426\nsamples = 13\nvalue = [4, 9]"] ;
852 -> 853 ;
854 [label="GoogleIndex <= 0.0\ngini = 0.32\nsamples = 5\nvalue = [4, 1]"] ;
853 -> 854 ;
855 [label="gini = 0.0\nsamples = 1\nvalue = [0, 1]"] ;
854 -> 855 ;
856 [label="gini = 0.0\nsamples = 4\nvalue = [4, 0]"] ;
854 -> 856 ;
857 [label="gini = 0.0\nsamples = 8\nvalue = [0, 8]"] ;
853 -> 857 ;
858 [label="AgeofDomain <= 0.0\ngini = 0.077\nsamples = 25\nvalue = [1, 24]"] ;
852 -> 858 ;
859 [label="Favicon <= 0.0\ngini = 0.444\nsamples = 3\nvalue = [1, 2]"] ;
858 -> 859 ;
860 [label="gini = 0.0\nsamples = 2\nvalue = [0, 2]"] ;
859 -> 860 ;
861 [label="gini = 0.0\nsamples = 1\nvalue = [1, 0]"] ;
859 -> 861 ;
862 [label="gini = 0.0\nsamples = 22\nvalue = [0, 22]"] ;
858 -> 862 ;
863 [label="gini = 0.0\nsamples = 273\nvalue = [0, 273]"] ;
729 -> 863 ;
864 [label="Index <= 8298.5\ngini = 0.019\nsamples = 2244\nvalue = [22, 2222]"] ;
728 -> 864 ;
865 [label="IframeRedirection <= 0.0\ngini = 0.004\nsamples = 1895\nvalue = [4, 1891]"] ;
864 -> 865 ;
866 [label="DomainRegLen <= 0.0\ngini = 0.031\nsamples = 188\nvalue = [3, 185]"] ;
865 -> 866 ;
867 [label="gini = 0.0\nsamples = 151\nvalue = [0, 151]"] ;
866 -> 867 ;
868 [label="AnchorURL <= 0.5\ngini = 0.149\nsamples = 37\nvalue = [3, 34]"] ;
866 -> 868 ;
869 [label="PrefixSuffix- <= 0.0\ngini = 0.444\nsamples = 9\nvalue = [3, 6]"] ;
868 -> 869 ;
870 [label="gini = 0.0\nsamples = 3\nvalue = [3, 0]"] ;
869 -> 870 ;
871 [label="gini = 0.0\nsamples = 6\nvalue = [0, 6]"] ;
869 -> 871 ;
872 [label="gini = 0.0\nsamples = 28\nvalue = [0, 28]"] ;
868 -> 872 ;
873 [label="Index <= 1455.0\ngini = 0.001\nsamples = 1707\nvalue = [1, 1706]"] ;
865 -> 873 ;
874 [label="Index <= 1450.5\ngini = 0.007\nsamples = 302\nvalue = [1, 301]"] ;
873 -> 874 ;
875 [label="gini = 0.0\nsamples = 301\nvalue = [0, 301]"] ;
874 -> 875 ;
876 [label="gini = 0.0\nsamples = 1\nvalue = [1, 0]"] ;
874 -> 876 ;
877 [label="gini = 0.0\nsamples = 1405\nvalue = [0, 1405]"] ;
873 -> 877 ;
878 [label="SubDomains <= 0.5\ngini = 0.098\nsamples = 349\nvalue = [18, 331]"] ;
864 -> 878 ;
879 [label="SubDomains <= -0.5\ngini = 0.271\nsamples = 99\nvalue = [16, 83]"] ;
878 -> 879 ;
880 [label="gini = 0.0\nsamples = 42\nvalue = [0, 42]"] ;
879 -> 880 ;
881 [label="LinksPointingToPage <= -0.5\ngini = 0.404\nsamples = 57\nvalue = [16, 41]"] ;
879 -> 881 ;
882 [label="UsingIP <= 0.0\ngini = 0.469\nsamples = 8\nvalue = [5, 3]"] ;
881 -> 882 ;
883 [label="gini = 0.0\nsamples = 4\nvalue = [4, 0]"] ;
882 -> 883 ;
884 [label="Index <= 10139.0\ngini = 0.375\nsamples = 4\nvalue = [1, 3]"] ;
882 -> 884 ;
885 [label="gini = 0.0\nsamples = 3\nvalue = [0, 3]"] ;
884 -> 885 ;
886 [label="gini = 0.0\nsamples = 1\nvalue = [1, 0]"] ;
884 -> 886 ;
887 [label="Favicon <= 0.0\ngini = 0.348\nsamples = 49\nvalue = [11, 38]"] ;
881 -> 887 ;
888 [label="gini = 0.0\nsamples = 10\nvalue = [0, 10]"] ;
887 -> 888 ;
889 [label="UsingIP <= 0.0\ngini = 0.405\nsamples = 39\nvalue = [11, 28]"] ;
887 -> 889 ;
890 [label="AgeofDomain <= 0.0\ngini = 0.488\nsamples = 19\nvalue = [8, 11]"] ;
889 -> 890 ;
891 [label="gini = 0.0\nsamples = 4\nvalue = [0, 4]"] ;
890 -> 891 ;
892 [label="Index <= 9078.0\ngini = 0.498\nsamples = 15\nvalue = [8, 7]"] ;
890 -> 892 ;
893 [label="gini = 0.0\nsamples = 2\nvalue = [2, 0]"] ;
892 -> 893 ;
894 [label="Index <= 9815.0\ngini = 0.497\nsamples = 13\nvalue = [6, 7]"] ;
892 -> 894 ;
895 [label="Index <= 9530.5\ngini = 0.32\nsamples = 5\nvalue = [1, 4]"] ;
894 -> 895 ;
896 [label="DomainRegLen <= 0.0\ngini = 0.5\nsamples = 2\nvalue = [1, 1]"] ;
895 -> 896 ;
897 [label="gini = 0.0\nsamples = 1\nvalue = [1, 0]"] ;
896 -> 897 ;
898 [label="gini = 0.0\nsamples = 1\nvalue = [0, 1]"] ;
896 -> 898 ;
899 [label="gini = 0.0\nsamples = 3\nvalue = [0, 3]"] ;
895 -> 899 ;
900 [label="LinksPointingToPage <= 0.5\ngini = 0.469\nsamples = 8\nvalue = [5, 3]"] ;
894 -> 900 ;
901 [label="gini = 0.0\nsamples = 2\nvalue = [2, 0]"] ;
900 -> 901 ;
902 [label="PageRank <= 0.0\ngini = 0.5\nsamples = 6\nvalue = [3, 3]"] ;
900 -> 902 ;
903 [label="Index <= 9848.5\ngini = 0.48\nsamples = 5\nvalue = [2, 3]"] ;
902 -> 903 ;
904 [label="gini = 0.0\nsamples = 1\nvalue = [1, 0]"] ;
903 -> 904 ;
905 [label="Index <= 10351.0\ngini = 0.375\nsamples = 4\nvalue = [1, 3]"] ;
903 -> 905 ;
906 [label="gini = 0.0\nsamples = 2\nvalue = [0, 2]"] ;
905 -> 906 ;
907 [label="Index <= 10808.5\ngini = 0.5\nsamples = 2\nvalue = [1, 1]"] ;
905 -> 907 ;
908 [label="gini = 0.0\nsamples = 1\nvalue = [1, 0]"] ;
907 -> 908 ;
909 [label="gini = 0.0\nsamples = 1\nvalue = [0, 1]"] ;
907 -> 909 ;
910 [label="gini = 0.0\nsamples = 1\nvalue = [1, 0]"] ;
902 -> 910 ;
911 [label="RequestURL <= 0.0\ngini = 0.255\nsamples = 20\nvalue = [3, 17]"] ;
889 -> 911 ;
912 [label="gini = 0.0\nsamples = 2\nvalue = [2, 0]"] ;
911 -> 912 ;
913 [label="Index <= 9894.0\ngini = 0.105\nsamples = 18\nvalue = [1, 17]"] ;
911 -> 913 ;
914 [label="gini = 0.0\nsamples = 9\nvalue = [0, 9]"] ;
913 -> 914 ;
915 [label="Index <= 10226.0\ngini = 0.198\nsamples = 9\nvalue = [1, 8]"] ;
913 -> 915 ;
916 [label="gini = 0.0\nsamples = 1\nvalue = [1, 0]"] ;
915 -> 916 ;
917 [label="gini = 0.0\nsamples = 8\nvalue = [0, 8]"] ;
915 -> 917 ;
918 [label="Index <= 8363.0\ngini = 0.016\nsamples = 250\nvalue = [2, 248]"] ;
878 -> 918 ;
919 [label="UsingIP <= 0.0\ngini = 0.444\nsamples = 3\nvalue = [1, 2]"] ;
918 -> 919 ;
920 [label="gini = 0.0\nsamples = 1\nvalue = [1, 0]"] ;
919 -> 920 ;
921 [label="gini = 0.0\nsamples = 2\nvalue = [0, 2]"] ;
919 -> 921 ;
922 [label="Index <= 8666.0\ngini = 0.008\nsamples = 247\nvalue = [1, 246]"] ;
918 -> 922 ;
923 [label="Index <= 8642.0\ngini = 0.053\nsamples = 37\nvalue = [1, 36]"] ;
922 -> 923 ;
924 [label="gini = 0.0\nsamples = 36\nvalue = [0, 36]"] ;
923 -> 924 ;
925 [label="gini = 0.0\nsamples = 1\nvalue = [1, 0]"] ;
923 -> 925 ;
926 [label="gini = 0.0\nsamples = 210\nvalue = [0, 210]"] ;
922 -> 926 ;
}